<?xml version="1.0"?>
<MethodSetup Method="BDT::BDTG">
  <GeneralInfo>
    <Info name="TMVA Release" value="4.2.1 [262657]"/>
    <Info name="ROOT Release" value="6.22/02 [398850]"/>
    <Info name="Creator" value="rishabh"/>
    <Info name="Date" value="Sat Oct  3 02:14:31 2020"/>
    <Info name="Host" value="Linux DragonBall 5.4.0-48-generic #52-Ubuntu SMP Thu Sep 10 10:58:49 UTC 2020 x86_64 x86_64 x86_64 GNU/Linux"/>
    <Info name="Dir" value="/home/rishabh/project/root_files/val/2016/tmva"/>
    <Info name="Training events" value="890346"/>
    <Info name="TrainingTime" value="6.03042257e+02"/>
    <Info name="AnalysisType" value="Classification"/>
  </GeneralInfo>
  <Options>
    <Option name="V" modified="Yes">False</Option>
    <Option name="VerbosityLevel" modified="No">Default</Option>
    <Option name="VarTransform" modified="No">None</Option>
    <Option name="H" modified="Yes">False</Option>
    <Option name="CreateMVAPdfs" modified="No">False</Option>
    <Option name="IgnoreNegWeightsInTraining" modified="No">False</Option>
    <Option name="NTrees" modified="Yes">1000</Option>
    <Option name="MaxDepth" modified="Yes">2</Option>
    <Option name="MinNodeSize" modified="Yes">2.5%</Option>
    <Option name="nCuts" modified="Yes">20</Option>
    <Option name="BoostType" modified="Yes">Grad</Option>
    <Option name="AdaBoostR2Loss" modified="No">quadratic</Option>
    <Option name="UseBaggedBoost" modified="Yes">True</Option>
    <Option name="Shrinkage" modified="Yes">1.000000e-01</Option>
    <Option name="AdaBoostBeta" modified="No">5.000000e-01</Option>
    <Option name="UseRandomisedTrees" modified="No">False</Option>
    <Option name="UseNvars" modified="No">4</Option>
    <Option name="UsePoissonNvars" modified="No">True</Option>
    <Option name="BaggedSampleFraction" modified="Yes">5.000000e-01</Option>
    <Option name="UseYesNoLeaf" modified="No">True</Option>
    <Option name="NegWeightTreatment" modified="No">pray</Option>
    <Option name="Css" modified="No">1.000000e+00</Option>
    <Option name="Cts_sb" modified="No">1.000000e+00</Option>
    <Option name="Ctb_ss" modified="No">1.000000e+00</Option>
    <Option name="Cbb" modified="No">1.000000e+00</Option>
    <Option name="NodePurityLimit" modified="No">5.000000e-01</Option>
    <Option name="SeparationType" modified="No">giniindex</Option>
    <Option name="RegressionLossFunctionBDTG" modified="No">huber</Option>
    <Option name="HuberQuantile" modified="No">7.000000e-01</Option>
    <Option name="DoBoostMonitor" modified="No">False</Option>
    <Option name="UseFisherCuts" modified="No">False</Option>
    <Option name="MinLinCorrForFisher" modified="No">8.000000e-01</Option>
    <Option name="UseExclusiveVars" modified="No">False</Option>
    <Option name="DoPreselection" modified="No">False</Option>
    <Option name="SigToBkgFraction" modified="No">1.000000e+00</Option>
    <Option name="PruneMethod" modified="No">nopruning</Option>
    <Option name="PruneStrength" modified="No">0.000000e+00</Option>
    <Option name="PruningValFraction" modified="No">5.000000e-01</Option>
    <Option name="SkipNormalization" modified="No">False</Option>
    <Option name="nEventsMin" modified="No">0</Option>
    <Option name="UseBaggedGrad" modified="No">False</Option>
    <Option name="GradBaggingFraction" modified="No">5.000000e-01</Option>
    <Option name="UseNTrainEvents" modified="No">0</Option>
    <Option name="NNodesMax" modified="No">0</Option>
  </Options>
  <Variables NVar="12">
    <Variable VarIndex="0" Expression="TMath::Max(Kmpt,Kppt)" Label="Max_Kpt" Title="Max_Kpt" Unit="" Internal="Max_Kpt" Type="F" Min="8.02783012e-01" Max="9.41314697e+01"/>
    <Variable VarIndex="1" Expression="TMath::Max(MumMinIP/MumMinIPE,MupMinIP/MupMinIPE)" Label="Max_MuMinIPsig" Title="Max_MuMinIPsig" Unit="" Internal="Max_MuMinIPsig" Type="F" Min="1.06196525e-03" Max="2.08015919e+00"/>
    <Variable VarIndex="2" Expression="TMath::Max(KmtrkMinIP/KmtrkMinIPE,KptrkMinIP/KptrkMinIPE)" Label="Max_MinIPsig" Title="Max_MinIPsig" Unit="" Internal="Max_MinIPsig" Type="F" Min="1.30097114e-03" Max="9.46141434e+00"/>
    <Variable VarIndex="3" Expression="TMath::Max(Kmtrkdcasigbs,Kptrkdcasigbs)" Label="Max_DCA" Title="Max_DCA" Unit="" Internal="Max_DCA" Type="F" Min="8.02518964e-01" Max="2.04163025e+02"/>
    <Variable VarIndex="4" Expression="Bcosalphabs2d" Label="Bcosalphabs2d" Title="Bcosalphabs2d" Unit="" Internal="Bcosalphabs2d" Type="F" Min="9.00049448e-01" Max="1.00000000e+00"/>
    <Variable VarIndex="5" Expression="Blxysig" Label="Blxysig" Title="Blxysig" Unit="" Internal="Blxysig" Type="F" Min="2.13652402e-01" Max="7.10017090e+02"/>
    <Variable VarIndex="6" Expression="Bvtxcl" Label="Bvtxcl" Title="Bvtxcl" Unit="" Internal="Bvtxcl" Type="F" Min="1.00000557e-02" Max="9.99999940e-01"/>
    <Variable VarIndex="7" Expression="Bpt" Label="Bpt" Title="Bpt" Unit="" Internal="Bpt" Type="F" Min="8.76509953e+00" Max="3.42399445e+02"/>
    <Variable VarIndex="8" Expression="Bsdcasigbs" Label="Bsdcasigbs" Title="Bsdcasigbs" Unit="" Internal="Bsdcasigbs" Type="F" Min="3.37902793e-06" Max="6.64590225e+01"/>
    <Variable VarIndex="9" Expression="Phimass" Label="Phimass" Title="Phimass" Unit="" Internal="Phimass" Type="F" Min="1.00000012e+00" Max="1.03999960e+00"/>
    <Variable VarIndex="10" Expression="BsIso" Label="BsIso" Title="BsIso" Unit="" Internal="BsIso" Type="F" Min="1.27517777e-02" Max="1.00000000e+00"/>
    <Variable VarIndex="11" Expression="TMath::Max(kmtrkIso,kptrkIso)" Label="K_Iso" Title="K_Iso" Unit="" Internal="K_Iso" Type="F" Min="2.35476880e-03" Max="1.00000000e+00"/>
  </Variables>
  <Spectators NSpec="3">
    <Spectator SpecIndex="0" Expression="Bmass" Label="Bmass" Title="Spectator1" Unit="GeV" Internal="Bmass" Type="F" Min="4.70000029e+00" Max="5.99995708e+00"/>
    <Spectator SpecIndex="1" Expression="Mumumass" Label="Mumumass" Title="Spectator2" Unit="GeV" Internal="Mumumass" Type="F" Min="1.00002551e+00" Max="4.79996204e+00"/>
    <Spectator SpecIndex="2" Expression="Mumumasserr" Label="Mumumasserr" Title="Spectator3" Unit="GeV" Internal="Mumumasserr" Type="F" Min="4.25894652e-03" Max="1.09691150e-01"/>
  </Spectators>
  <Classes NClass="2">
    <Class Name="Signal" Index="0"/>
    <Class Name="Background" Index="1"/>
  </Classes>
  <Transformations NTransformations="0"/>
  <MVAPdfs/>
  <Weights NTrees="1000" AnalysisType="1">
    <BinaryTree type="DecisionTree" boostWeight="1.0000000000000000e+00" itree="0">
      <Node pos="s" depth="0" NCoef="0" IVar="10" Cut="8.6063492298126221e-01" cType="1" res="-1.8252623267471790e-03" rms="4.9999666213989258e-01" purity="4.9817472696304321e-01" nType="0">
        <Node pos="l" depth="1" NCoef="0" IVar="11" Cut="2.8762748837471008e-01" cType="1" res="-3.6159768700599670e-01" rms="3.4532177448272705e-01" purity="1.3840231299400330e-01" nType="0">
          <Node pos="l" depth="2" NCoef="0" IVar="-1" Cut="0.0000000000000000e+00" cType="1" res="-9.1557271778583527e-02" rms="2.0107620954513550e-01" purity="4.2213633656501770e-02" nType="-99"/>
          <Node pos="r" depth="2" NCoef="0" IVar="-1" Cut="0.0000000000000000e+00" cType="1" res="-4.5563876628875732e-02" rms="4.4508239626884460e-01" purity="2.7218061685562134e-01" nType="-99"/>
        </Node>
        <Node pos="r" depth="1" NCoef="0" IVar="8" Cut="2.6816108226776123e+00" cType="1" res="2.1087007224559784e-01" rms="4.5335838198661804e-01" purity="7.1087008714675903e-01" nType="0">
          <Node pos="l" depth="2" NCoef="0" IVar="-1" Cut="0.0000000000000000e+00" cType="1" res="5.6406032294034958e-02" rms="4.1286680102348328e-01" purity="7.8203010559082031e-01" nType="-99"/>
          <Node pos="r" depth="2" NCoef="0" IVar="-1" Cut="0.0000000000000000e+00" cType="1" res="-3.6481551826000214e-02" rms="4.6553990244865417e-01" purity="3.1759226322174072e-01" nType="-99"/>
        </Node>
      </Node>
    </BinaryTree>
    <BinaryTree type="DecisionTree" boostWeight="1.0000000000000000e+00" itree="1">
      <Node pos="s" depth="0" NCoef="0" IVar="10" Cut="8.6063492298126221e-01" cType="1" res="8.0751423956826329e-04" rms="4.8090013861656189e-01" purity="5.0072026252746582e-01" nType="0">
        <Node pos="l" depth="1" NCoef="0" IVar="5" Cut="1.3932441711425781e+01" cType="1" res="-3.2472842931747437e-01" rms="3.4293723106384277e-01" purity="1.3942897319793701e-01" nType="0">
          <Node pos="l" depth="2" NCoef="0" IVar="-1" Cut="0.0000000000000000e+00" cType="1" res="-7.4554808437824249e-02" rms="2.8765437006950378e-01" purity="9.3155525624752045e-02" nType="-99"/>
          <Node pos="r" depth="2" NCoef="0" IVar="-1" Cut="0.0000000000000000e+00" cType="1" res="-1.1388630606234074e-02" rms="4.8686271905899048e-01" purity="4.0967866778373718e-01" nType="-99"/>
        </Node>
        <Node pos="r" depth="1" NCoef="0" IVar="8" Cut="2.3071730136871338e+00" cType="1" res="1.9398976862430573e-01" rms="4.4554039835929871e-01" purity="7.1512067317962646e-01" nType="0">
          <Node pos="l" depth="2" NCoef="0" IVar="-1" Cut="0.0000000000000000e+00" cType="1" res="5.3086329251527786e-02" rms="4.0532746911048889e-01" purity="7.9276210069656372e-01" nType="-99"/>
          <Node pos="r" depth="2" NCoef="0" IVar="-1" Cut="0.0000000000000000e+00" cType="1" res="-1.7884623259305954e-02" rms="4.8533999919891357e-01" purity="4.0361186861991882e-01" nType="-99"/>
        </Node>
      </Node>
    </BinaryTree>
    <BinaryTree type="DecisionTree" boostWeight="1.0000000000000000e+00" itree="2">
      <Node pos="s" depth="0" NCoef="0" IVar="11" Cut="4.2991700768470764e-01" cType="1" res="1.3230208423919976e-04" rms="4.6491453051567078e-01" purity="5.0007605552673340e-01" nType="0">
        <Node pos="l" depth="1" NCoef="0" IVar="5" Cut="1.4252403259277344e+01" cType="1" res="-3.2305881381034851e-01" rms="3.1096655130386353e-01" purity="1.2130884081125259e-01" nType="0">
          <Node pos="l" depth="2" NCoef="0" IVar="-1" Cut="0.0000000000000000e+00" cType="1" res="-7.6860152184963226e-02" rms="2.2685673832893372e-01" purity="5.6534428149461746e-02" nType="-99"/>
          <Node pos="r" depth="2" NCoef="0" IVar="-1" Cut="0.0000000000000000e+00" cType="1" res="-2.7254395186901093e-02" rms="4.6240916848182678e-01" purity="3.5368010401725769e-01" nType="-99"/>
        </Node>
        <Node pos="r" depth="1" NCoef="0" IVar="10" Cut="8.1984090805053711e-01" cType="1" res="1.6048806905746460e-01" rms="4.4482633471488953e-01" purity="6.8800669908523560e-01" nType="0">
          <Node pos="l" depth="2" NCoef="0" IVar="-1" Cut="0.0000000000000000e+00" cType="1" res="-4.4394802302122116e-02" rms="4.1423904895782471e-01" purity="2.2499236464500427e-01" nType="-99"/>
          <Node pos="r" depth="2" NCoef="0" IVar="-1" Cut="0.0000000000000000e+00" cType="1" res="4.1504979133605957e-02" rms="4.2651590704917908e-01" purity="7.4278336763381958e-01" nType="-99"/>
        </Node>
      </Node>
    </BinaryTree>
    <BinaryTree type="DecisionTree" boostWeight="1.0000000000000000e+00" itree="3">
      <Node pos="s" depth="0" NCoef="0" IVar="10" Cut="9.0597635507583618e-01" cType="1" res="-2.1542915783356875e-04" rms="4.5121833682060242e-01" purity="4.9974051117897034e-01" nType="0">
        <Node pos="l" depth="1" NCoef="0" IVar="11" Cut="3.3490318059921265e-01" cType="1" res="-2.3127201199531555e-01" rms="3.7064999341964722e-01" purity="1.9601650536060333e-01" nType="0">
          <Node pos="l" depth="2" NCoef="0" IVar="-1" Cut="0.0000000000000000e+00" cType="1" res="-7.0316798985004425e-02" rms="2.3279811441898346e-01" purity="6.1096943914890289e-02" nType="-99"/>
          <Node pos="r" depth="2" NCoef="0" IVar="-1" Cut="0.0000000000000000e+00" cType="1" res="-1.9750416278839111e-02" rms="4.6185886859893799e-01" purity="3.7114593386650085e-01" nType="-99"/>
        </Node>
        <Node pos="r" depth="1" NCoef="0" IVar="8" Cut="2.5223753452301025e+00" cType="1" res="1.8614409863948822e-01" rms="4.2333880066871643e-01" purity="7.4471020698547363e-01" nType="0">
          <Node pos="l" depth="2" NCoef="0" IVar="-1" Cut="0.0000000000000000e+00" cType="1" res="5.0095289945602417e-02" rms="3.8470450043678284e-01" purity="8.1680744886398315e-01" nType="-99"/>
          <Node pos="r" depth="2" NCoef="0" IVar="-1" Cut="0.0000000000000000e+00" cType="1" res="-2.2256521508097649e-02" rms="4.8002117872238159e-01" purity="3.8191589713096619e-01" nType="-99"/>
        </Node>
      </Node>
    </BinaryTree>
    <BinaryTree type="DecisionTree" boostWeight="1.0000000000000000e+00" itree="4">
      <Node pos="s" depth="0" NCoef="0" IVar="10" Cut="9.0708994865417480e-01" cType="1" res="-7.8597589163109660e-04" rms="4.3960565328598022e-01" purity="5.0003749132156372e-01" nType="0">
        <Node pos="l" depth="1" NCoef="0" IVar="5" Cut="1.2226666450500488e+01" cType="1" res="-2.0756031572818756e-01" rms="3.6889317631721497e-01" purity="1.9844841957092285e-01" nType="0">
          <Node pos="l" depth="2" NCoef="0" IVar="-1" Cut="0.0000000000000000e+00" cType="1" res="-5.8831967413425446e-02" rms="2.9982191324234009e-01" purity="1.1499902606010437e-01" nType="-99"/>
          <Node pos="r" depth="2" NCoef="0" IVar="-1" Cut="0.0000000000000000e+00" cType="1" res="3.0913173686712980e-03" rms="4.7157174348831177e-01" purity="4.7128462791442871e-01" nType="-99"/>
        </Node>
        <Node pos="r" depth="1" NCoef="0" IVar="9" Cut="1.0114301443099976e+00" cType="1" res="1.6612584888935089e-01" rms="4.2074918746948242e-01" purity="7.4348533153533936e-01" nType="0">
          <Node pos="l" depth="2" NCoef="0" IVar="-1" Cut="0.0000000000000000e+00" cType="1" res="-4.8244524747133255e-02" rms="4.4987750053405762e-01" purity="3.2288217544555664e-01" nType="-99"/>
          <Node pos="r" depth="2" NCoef="0" IVar="-1" Cut="0.0000000000000000e+00" cType="1" res="4.2125698179006577e-02" rms="3.9762818813323975e-01" purity="7.8301590681076050e-01" nType="-99"/>
        </Node>
      </Node>
    </BinaryTree>
    <BinaryTree type="DecisionTree" boostWeight="1.0000000000000000e+00" itree="5">
      <Node pos="s" depth="0" NCoef="0" IVar="11" Cut="4.7823795676231384e-01" cType="1" res="-1.4760149642825127e-03" rms="4.2867004871368408e-01" purity="4.9867811799049377e-01" nType="0">
        <Node pos="l" depth="1" NCoef="0" IVar="5" Cut="1.6936101913452148e+01" cType="1" res="-2.3331768810749054e-01" rms="3.2106164097785950e-01" purity="1.4698959887027740e-01" nType="0">
          <Node pos="l" depth="2" NCoef="0" IVar="-1" Cut="0.0000000000000000e+00" cType="1" res="-6.1444353312253952e-02" rms="2.5792732834815979e-01" purity="7.9079769551753998e-02" nType="-99"/>
          <Node pos="r" depth="2" NCoef="0" IVar="-1" Cut="0.0000000000000000e+00" cType="1" res="-9.0942615643143654e-03" rms="4.6631923317909241e-01" purity="4.4111502170562744e-01" nType="-99"/>
        </Node>
        <Node pos="r" depth="1" NCoef="0" IVar="9" Cut="1.0285730361938477e+00" cType="1" res="1.2954735755920410e-01" rms="4.2638993263244629e-01" purity="6.9743192195892334e-01" nType="0">
          <Node pos="l" depth="2" NCoef="0" IVar="-1" Cut="0.0000000000000000e+00" cType="1" res="3.7292096763849258e-02" rms="4.0149396657943726e-01" purity="7.5041919946670532e-01" nType="-99"/>
          <Node pos="r" depth="2" NCoef="0" IVar="-1" Cut="0.0000000000000000e+00" cType="1" res="-3.4936316311359406e-02" rms="4.5199540257453918e-01" purity="3.7515306472778320e-01" nType="-99"/>
        </Node>
      </Node>
    </BinaryTree>
    <BinaryTree type="DecisionTree" boostWeight="1.0000000000000000e+00" itree="6">
      <Node pos="s" depth="0" NCoef="0" IVar="11" Cut="5.2566242218017578e-01" cType="1" res="6.6836139012593776e-05" rms="4.1927015781402588e-01" purity="5.0063335895538330e-01" nType="0">
        <Node pos="l" depth="1" NCoef="0" IVar="5" Cut="1.3745310783386230e+01" cType="1" res="-1.9664968550205231e-01" rms="3.3704027533531189e-01" purity="1.7414659261703491e-01" nType="0">
          <Node pos="l" depth="2" NCoef="0" IVar="-1" Cut="0.0000000000000000e+00" cType="1" res="-5.8292619884014130e-02" rms="2.5683930516242981e-01" purity="7.8447557985782623e-02" nType="-99"/>
          <Node pos="r" depth="2" NCoef="0" IVar="-1" Cut="0.0000000000000000e+00" cType="1" res="-7.8714219853281975e-03" rms="4.6228605508804321e-01" purity="4.4370496273040771e-01" nType="-99"/>
        </Node>
        <Node pos="r" depth="1" NCoef="0" IVar="8" Cut="2.5223753452301025e+00" cType="1" res="1.2633810937404633e-01" rms="4.1823872923851013e-01" purity="7.1020340919494629e-01" nType="0">
          <Node pos="l" depth="2" NCoef="0" IVar="-1" Cut="0.0000000000000000e+00" cType="1" res="3.7132583558559418e-02" rms="3.9161035418510437e-01" purity="7.7622061967849731e-01" nType="-99"/>
          <Node pos="r" depth="2" NCoef="0" IVar="-1" Cut="0.0000000000000000e+00" cType="1" res="-2.4925354868173599e-02" rms="4.6109390258789062e-01" purity="3.6732527613639832e-01" nType="-99"/>
        </Node>
      </Node>
    </BinaryTree>
    <BinaryTree type="DecisionTree" boostWeight="1.0000000000000000e+00" itree="7">
      <Node pos="s" depth="0" NCoef="0" IVar="10" Cut="8.1195271015167236e-01" cType="1" res="1.3271641219034791e-03" rms="4.1094061732292175e-01" purity="5.0131344795227051e-01" nType="0">
        <Node pos="l" depth="1" NCoef="0" IVar="6" Cut="4.8142898082733154e-01" cType="1" res="-2.1680951118469238e-01" rms="2.7785235643386841e-01" purity="9.6044644713401794e-02" nType="0">
          <Node pos="l" depth="2" NCoef="0" IVar="-1" Cut="0.0000000000000000e+00" cType="1" res="-6.0114022344350815e-02" rms="2.1899892389774323e-01" purity="5.5936314165592194e-02" nType="-99"/>
          <Node pos="r" depth="2" NCoef="0" IVar="-1" Cut="0.0000000000000000e+00" cType="1" res="-1.7064996063709259e-02" rms="4.0776506066322327e-01" purity="2.5346124172210693e-01" nType="-99"/>
        </Node>
        <Node pos="r" depth="1" NCoef="0" IVar="9" Cut="1.0114312171936035e+00" cType="1" res="9.8394289612770081e-02" rms="4.2316424846649170e-01" purity="6.8165129423141479e-01" nType="0">
          <Node pos="l" depth="2" NCoef="0" IVar="-1" Cut="0.0000000000000000e+00" cType="1" res="-5.1259018480777740e-02" rms="4.0775030851364136e-01" purity="2.6384747028350830e-01" nType="-99"/>
          <Node pos="r" depth="2" NCoef="0" IVar="-1" Cut="0.0000000000000000e+00" cType="1" res="2.9015529900789261e-02" rms="4.0789833664894104e-01" purity="7.2664582729339600e-01" nType="-99"/>
        </Node>
      </Node>
    </BinaryTree>
    <BinaryTree type="DecisionTree" boostWeight="1.0000000000000000e+00" itree="8">
      <Node pos="s" depth="0" NCoef="0" IVar="11" Cut="3.8316616415977478e-01" cType="1" res="5.2576989401131868e-04" rms="4.0313106775283813e-01" purity="5.0033605098724365e-01" nType="0">
        <Node pos="l" depth="1" NCoef="0" IVar="0" Cut="2.4693396091461182e+00" cType="1" res="-2.0605148375034332e-01" rms="2.7065452933311462e-01" purity="9.9161617457866669e-02" nType="0">
          <Node pos="l" depth="2" NCoef="0" IVar="-1" Cut="0.0000000000000000e+00" cType="1" res="-5.7330399751663208e-02" rms="2.3242925107479095e-01" purity="6.8121120333671570e-02" nType="-99"/>
          <Node pos="r" depth="2" NCoef="0" IVar="-1" Cut="0.0000000000000000e+00" cType="1" res="-1.5145230107009411e-02" rms="3.8667795062065125e-01" purity="2.6155707240104675e-01" nType="-99"/>
        </Node>
        <Node pos="r" depth="1" NCoef="0" IVar="9" Cut="1.0285717248916626e+00" cType="1" res="9.0851835906505585e-02" rms="4.1800227761268616e-01" purity="6.7574995756149292e-01" nType="0">
          <Node pos="l" depth="2" NCoef="0" IVar="-1" Cut="0.0000000000000000e+00" cType="1" res="2.9442967846989632e-02" rms="3.9817458391189575e-01" purity="7.3100769519805908e-01" nType="-99"/>
          <Node pos="r" depth="2" NCoef="0" IVar="-1" Cut="0.0000000000000000e+00" cType="1" res="-3.6176614463329315e-02" rms="4.3523928523063660e-01" purity="3.5308429598808289e-01" nType="-99"/>
        </Node>
      </Node>
    </BinaryTree>
    <BinaryTree type="DecisionTree" boostWeight="1.0000000000000000e+00" itree="9">
      <Node pos="s" depth="0" NCoef="0" IVar="10" Cut="9.5298820734024048e-01" cType="1" res="-1.8518468132242560e-03" rms="3.9695847034454346e-01" purity="4.9783653020858765e-01" nType="0">
        <Node pos="l" depth="1" NCoef="0" IVar="6" Cut="3.3999890089035034e-01" cType="1" res="-1.1523582786321640e-01" rms="3.6866861581802368e-01" purity="2.7347615361213684e-01" nType="0">
          <Node pos="l" depth="2" NCoef="0" IVar="-1" Cut="0.0000000000000000e+00" cType="1" res="-4.7823209315538406e-02" rms="3.0304813385009766e-01" purity="1.5411348640918732e-01" nType="-99"/>
          <Node pos="r" depth="2" NCoef="0" IVar="-1" Cut="0.0000000000000000e+00" cType="1" res="3.5869409330189228e-03" rms="4.2066654562950134e-01" purity="4.6082526445388794e-01" nType="-99"/>
        </Node>
        <Node pos="r" depth="1" NCoef="0" IVar="8" Cut="2.1994428634643555e+00" cType="1" res="1.3964611291885376e-01" rms="3.8540986180305481e-01" purity="7.7782791852951050e-01" nType="0">
          <Node pos="l" depth="2" NCoef="0" IVar="-1" Cut="0.0000000000000000e+00" cType="1" res="4.2174894362688065e-02" rms="3.4537065029144287e-01" purity="8.5117250680923462e-01" nType="-99"/>
          <Node pos="r" depth="2" NCoef="0" IVar="-1" Cut="0.0000000000000000e+00" cType="1" res="-9.1352062299847603e-03" rms="4.6802762150764465e-01" purity="4.9417570233345032e-01" nType="-99"/>
        </Node>
      </Node>
    </BinaryTree>
    <BinaryTree type="DecisionTree" boostWeight="1.0000000000000000e+00" itree="10">
      <Node pos="s" depth="0" NCoef="0" IVar="10" Cut="8.1303608417510986e-01" cType="1" res="-2.0077625231351703e-04" rms="3.9069247245788574e-01" purity="4.9945747852325439e-01" nType="0">
        <Node pos="l" depth="1" NCoef="0" IVar="6" Cut="5.2856910228729248e-01" cType="1" res="-1.7359188199043274e-01" rms="2.7103638648986816e-01" purity="9.4802863895893097e-02" nType="0">
          <Node pos="l" depth="2" NCoef="0" IVar="-1" Cut="0.0000000000000000e+00" cType="1" res="-5.3137734532356262e-02" rms="2.2258074581623077e-01" purity="5.8906286954879761e-02" nType="-99"/>
          <Node pos="r" depth="2" NCoef="0" IVar="-1" Cut="0.0000000000000000e+00" cType="1" res="-1.3108079321682453e-02" rms="4.0625095367431641e-01" purity="2.5803560018539429e-01" nType="-99"/>
        </Node>
        <Node pos="r" depth="1" NCoef="0" IVar="8" Cut="2.6815915107727051e+00" cType="1" res="7.8951887786388397e-02" rms="4.1084855794906616e-01" purity="6.8418145179748535e-01" nType="0">
          <Node pos="l" depth="2" NCoef="0" IVar="-1" Cut="0.0000000000000000e+00" cType="1" res="2.7963332831859589e-02" rms="3.9106050133705139e-01" purity="7.5667947530746460e-01" nType="-99"/>
          <Node pos="r" depth="2" NCoef="0" IVar="-1" Cut="0.0000000000000000e+00" cType="1" res="-3.3702757209539413e-02" rms="4.2877674102783203e-01" purity="2.9743117094039917e-01" nType="-99"/>
        </Node>
      </Node>
    </BinaryTree>
    <BinaryTree type="DecisionTree" boostWeight="1.0000000000000000e+00" itree="11">
      <Node pos="s" depth="0" NCoef="0" IVar="11" Cut="3.8241010904312134e-01" cType="1" res="-1.4924416973371990e-05" rms="3.8552397489547729e-01" purity="4.9984639883041382e-01" nType="0">
        <Node pos="l" depth="1" NCoef="0" IVar="11" Cut="2.5572490692138672e-01" cType="1" res="-1.6445565223693848e-01" rms="2.6636236906051636e-01" purity="9.8985247313976288e-02" nType="0">
          <Node pos="l" depth="2" NCoef="0" IVar="-1" Cut="0.0000000000000000e+00" cType="1" res="-5.4890837520360947e-02" rms="1.9531153142452240e-01" purity="4.5981604605913162e-02" nType="-99"/>
          <Node pos="r" depth="2" NCoef="0" IVar="-1" Cut="0.0000000000000000e+00" cType="1" res="-2.2565105929970741e-02" rms="3.8022214174270630e-01" purity="2.2991640865802765e-01" nType="-99"/>
        </Node>
        <Node pos="r" depth="1" NCoef="0" IVar="9" Cut="1.0114355087280273e+00" cType="1" res="7.1974694728851318e-02" rms="4.0695852041244507e-01" purity="6.7533719539642334e-01" nType="0">
          <Node pos="l" depth="2" NCoef="0" IVar="-1" Cut="0.0000000000000000e+00" cType="1" res="-4.8998653888702393e-02" rms="4.0141540765762329e-01" purity="2.6816108822822571e-01" nType="-99"/>
          <Node pos="r" depth="2" NCoef="0" IVar="-1" Cut="0.0000000000000000e+00" cType="1" res="2.3572210222482681e-02" rms="3.9426624774932861e-01" purity="7.1825808286666870e-01" nType="-99"/>
        </Node>
      </Node>
    </BinaryTree>
    <BinaryTree type="DecisionTree" boostWeight="1.0000000000000000e+00" itree="12">
      <Node pos="s" depth="0" NCoef="0" IVar="8" Cut="3.1647186279296875e+00" cType="1" res="-9.4273214926943183e-04" rms="3.8123545050621033e-01" purity="4.9866366386413574e-01" nType="0">
        <Node pos="l" depth="1" NCoef="0" IVar="6" Cut="2.4571430683135986e-01" cType="1" res="4.5103840529918671e-02" rms="3.8447105884552002e-01" purity="5.8077001571655273e-01" nType="0">
          <Node pos="l" depth="2" NCoef="0" IVar="-1" Cut="0.0000000000000000e+00" cType="1" res="-1.9540045410394669e-02" rms="3.6834329366683960e-01" purity="3.7114295363426208e-01" nType="-99"/>
          <Node pos="r" depth="2" NCoef="0" IVar="-1" Cut="0.0000000000000000e+00" cType="1" res="2.9560146853327751e-02" rms="3.7339138984680176e-01" purity="7.1730750799179077e-01" nType="-99"/>
        </Node>
        <Node pos="r" depth="1" NCoef="0" IVar="6" Cut="2.9286104440689087e-01" cType="1" res="-2.2350730001926422e-01" rms="2.7126005291938782e-01" purity="1.0180542618036270e-01" nType="0">
          <Node pos="l" depth="2" NCoef="0" IVar="-1" Cut="0.0000000000000000e+00" cType="1" res="-5.9945233166217804e-02" rms="2.2320598363876343e-01" purity="6.3187286257743835e-02" nType="-99"/>
          <Node pos="r" depth="2" NCoef="0" IVar="-1" Cut="0.0000000000000000e+00" cType="1" res="-4.8580240458250046e-02" rms="3.3192196488380432e-01" purity="1.6157816350460052e-01" nType="-99"/>
        </Node>
      </Node>
    </BinaryTree>
    <BinaryTree type="DecisionTree" boostWeight="1.0000000000000000e+00" itree="13">
      <Node pos="s" depth="0" NCoef="0" IVar="10" Cut="9.5298820734024048e-01" cType="1" res="1.4847049897070974e-04" rms="3.7632215023040771e-01" purity="5.0025981664657593e-01" nType="0">
        <Node pos="l" depth="1" NCoef="0" IVar="5" Cut="1.4367929458618164e+01" cType="1" res="-8.7560772895812988e-02" rms="3.5388496518135071e-01" purity="2.7498504519462585e-01" nType="0">
          <Node pos="l" depth="2" NCoef="0" IVar="-1" Cut="0.0000000000000000e+00" cType="1" res="-3.6580976098775864e-02" rms="3.1559559702873230e-01" purity="1.7844025790691376e-01" nType="-99"/>
          <Node pos="r" depth="2" NCoef="0" IVar="-1" Cut="0.0000000000000000e+00" cType="1" res="1.5270839445292950e-02" rms="4.1615325212478638e-01" purity="5.7721745967864990e-01" nType="-99"/>
        </Node>
        <Node pos="r" depth="1" NCoef="0" IVar="9" Cut="1.0266669988632202e+00" cType="1" res="1.0827842354774475e-01" rms="3.7502077221870422e-01" purity="7.7798372507095337e-01" nType="0">
          <Node pos="l" depth="2" NCoef="0" IVar="-1" Cut="0.0000000000000000e+00" cType="1" res="3.4156274050474167e-02" rms="3.4649273753166199e-01" purity="8.2248306274414062e-01" nType="-99"/>
          <Node pos="r" depth="2" NCoef="0" IVar="-1" Cut="0.0000000000000000e+00" cType="1" res="-1.8395734950900078e-02" rms="4.5813268423080444e-01" purity="5.3469818830490112e-01" nType="-99"/>
        </Node>
      </Node>
    </BinaryTree>
    <BinaryTree type="DecisionTree" boostWeight="1.0000000000000000e+00" itree="14">
      <Node pos="s" depth="0" NCoef="0" IVar="11" Cut="3.3592736721038818e-01" cType="1" res="-6.3585517636965960e-05" rms="3.7228479981422424e-01" purity="4.9941903352737427e-01" nType="0">
        <Node pos="l" depth="1" NCoef="0" IVar="11" Cut="2.2524614632129669e-01" cType="1" res="-1.4629408717155457e-01" rms="2.3669955134391785e-01" purity="7.6352521777153015e-02" nType="0">
          <Node pos="l" depth="2" NCoef="0" IVar="-1" Cut="0.0000000000000000e+00" cType="1" res="-5.3374435752630234e-02" rms="1.7297174036502838e-01" purity="3.5839740186929703e-02" nType="-99"/>
          <Node pos="r" depth="2" NCoef="0" IVar="-1" Cut="0.0000000000000000e+00" cType="1" res="-2.7071148157119751e-02" rms="3.3879005908966064e-01" purity="1.7247152328491211e-01" nType="-99"/>
        </Node>
        <Node pos="r" depth="1" NCoef="0" IVar="9" Cut="1.0266695022583008e+00" cType="1" res="5.5649157613515854e-02" rms="3.9850151538848877e-01" purity="6.6060429811477661e-01" nType="0">
          <Node pos="l" depth="2" NCoef="0" IVar="-1" Cut="0.0000000000000000e+00" cType="1" res="2.3584369570016861e-02" rms="3.7978214025497437e-01" purity="7.2575628757476807e-01" nType="-99"/>
          <Node pos="r" depth="2" NCoef="0" IVar="-1" Cut="0.0000000000000000e+00" cType="1" res="-3.0246634036302567e-02" rms="4.2072889208793640e-01" purity="3.7899130582809448e-01" nType="-99"/>
        </Node>
      </Node>
    </BinaryTree>
    <BinaryTree type="DecisionTree" boostWeight="1.0000000000000000e+00" itree="15">
      <Node pos="s" depth="0" NCoef="0" IVar="6" Cut="1.5143086016178131e-01" cType="1" res="-7.4175134068354964e-04" rms="3.6954951286315918e-01" purity="4.9946734309196472e-01" nType="0">
        <Node pos="l" depth="1" NCoef="0" IVar="5" Cut="2.2889743804931641e+01" cType="1" res="-1.1935722827911377e-01" rms="3.2735890150070190e-01" purity="2.6060369610786438e-01" nType="0">
          <Node pos="l" depth="2" NCoef="0" IVar="-1" Cut="0.0000000000000000e+00" cType="1" res="-4.7079518437385559e-02" rms="2.9308897256851196e-01" purity="1.5745106339454651e-01" nType="-99"/>
          <Node pos="r" depth="2" NCoef="0" IVar="-1" Cut="0.0000000000000000e+00" cType="1" res="2.2543260827660561e-02" rms="3.7812554836273193e-01" purity="7.1336370706558228e-01" nType="-99"/>
        </Node>
        <Node pos="r" depth="1" NCoef="0" IVar="8" Cut="2.3071730136871338e+00" cType="1" res="5.7921454310417175e-02" rms="3.7511175870895386e-01" purity="6.1760127544403076e-01" nType="0">
          <Node pos="l" depth="2" NCoef="0" IVar="-1" Cut="0.0000000000000000e+00" cType="1" res="2.6351979002356529e-02" rms="3.6335971951484680e-01" purity="7.1761131286621094e-01" nType="-99"/>
          <Node pos="r" depth="2" NCoef="0" IVar="-1" Cut="0.0000000000000000e+00" cType="1" res="-2.4118224158883095e-02" rms="3.7005385756492615e-01" purity="2.8617721796035767e-01" nType="-99"/>
        </Node>
      </Node>
    </BinaryTree>
    <BinaryTree type="DecisionTree" boostWeight="1.0000000000000000e+00" itree="16">
      <Node pos="s" depth="0" NCoef="0" IVar="11" Cut="5.2493083477020264e-01" cType="1" res="1.5083631733432412e-03" rms="3.6470717191696167e-01" purity="5.0250279903411865e-01" nType="0">
        <Node pos="l" depth="1" NCoef="0" IVar="0" Cut="2.7541046142578125e+00" cType="1" res="-9.9116228520870209e-02" rms="3.0581718683242798e-01" purity="1.7392283678054810e-01" nType="0">
          <Node pos="l" depth="2" NCoef="0" IVar="-1" Cut="0.0000000000000000e+00" cType="1" res="-4.0189661085605621e-02" rms="2.7201133966445923e-01" purity="1.2125106155872345e-01" nType="-99"/>
          <Node pos="r" depth="2" NCoef="0" IVar="-1" Cut="0.0000000000000000e+00" cType="1" res="2.4104753509163857e-02" rms="3.9366760849952698e-01" purity="4.5855012536048889e-01" nType="-99"/>
        </Node>
        <Node pos="r" depth="1" NCoef="0" IVar="9" Cut="1.0114355087280273e+00" cType="1" res="6.6235490143299103e-02" rms="3.8432911038398743e-01" purity="7.1386307477951050e-01" nType="0">
          <Node pos="l" depth="2" NCoef="0" IVar="-1" Cut="0.0000000000000000e+00" cType="1" res="-4.5170277357101440e-02" rms="4.0969970822334290e-01" purity="3.0174818634986877e-01" nType="-99"/>
          <Node pos="r" depth="2" NCoef="0" IVar="-1" Cut="0.0000000000000000e+00" cType="1" res="2.2661251947283745e-02" rms="3.7095385789871216e-01" purity="7.5428891181945801e-01" nType="-99"/>
        </Node>
      </Node>
    </BinaryTree>
    <BinaryTree type="DecisionTree" boostWeight="1.0000000000000000e+00" itree="17">
      <Node pos="s" depth="0" NCoef="0" IVar="8" Cut="3.1647222042083740e+00" cType="1" res="3.2041993108578026e-04" rms="3.6143815517425537e-01" purity="5.0107139348983765e-01" nType="0">
        <Node pos="l" depth="1" NCoef="0" IVar="5" Cut="2.6722738265991211e+01" cType="1" res="3.6381088197231293e-02" rms="3.6720836162567139e-01" purity="5.8189606666564941e-01" nType="0">
          <Node pos="l" depth="2" NCoef="0" IVar="-1" Cut="0.0000000000000000e+00" cType="1" res="-5.4213455878198147e-03" rms="3.7770152091979980e-01" purity="4.5835891366004944e-01" nType="-99"/>
          <Node pos="r" depth="2" NCoef="0" IVar="-1" Cut="0.0000000000000000e+00" cType="1" res="4.4760413467884064e-02" rms="2.9669061303138733e-01" purity="8.8547378778457642e-01" nType="-99"/>
        </Node>
        <Node pos="r" depth="1" NCoef="0" IVar="11" Cut="7.6246541738510132e-01" cType="1" res="-1.7690524458885193e-01" rms="2.6865285634994507e-01" purity="1.0384659469127655e-01" nType="0">
          <Node pos="l" depth="2" NCoef="0" IVar="-1" Cut="0.0000000000000000e+00" cType="1" res="-5.3723886609077454e-02" rms="1.9893854856491089e-01" purity="5.0499662756919861e-02" nType="-99"/>
          <Node pos="r" depth="2" NCoef="0" IVar="-1" Cut="0.0000000000000000e+00" cType="1" res="-4.0945384651422501e-02" rms="3.9296233654022217e-01" purity="2.3904494941234589e-01" nType="-99"/>
        </Node>
      </Node>
    </BinaryTree>
    <BinaryTree type="DecisionTree" boostWeight="1.0000000000000000e+00" itree="18">
      <Node pos="s" depth="0" NCoef="0" IVar="9" Cut="1.0266669988632202e+00" cType="1" res="-8.4925326518714428e-05" rms="3.5814696550369263e-01" purity="5.0013726949691772e-01" nType="0">
        <Node pos="l" depth="1" NCoef="0" IVar="9" Cut="1.0139690637588501e+00" cType="1" res="3.8992516696453094e-02" rms="3.5569274425506592e-01" purity="5.7594090700149536e-01" nType="0">
          <Node pos="l" depth="2" NCoef="0" IVar="-1" Cut="0.0000000000000000e+00" cType="1" res="-4.0394552052021027e-02" rms="3.1220752000808716e-01" purity="2.1155747771263123e-01" nType="-99"/>
          <Node pos="r" depth="2" NCoef="0" IVar="-1" Cut="0.0000000000000000e+00" cType="1" res="2.5681622326374054e-02" rms="3.4843701124191284e-01" purity="6.9029778242111206e-01" nType="-99"/>
        </Node>
        <Node pos="r" depth="1" NCoef="0" IVar="5" Cut="2.0926124572753906e+01" cType="1" res="-1.3457795977592468e-01" rms="3.3309891819953918e-01" purity="2.3924361169338226e-01" nType="0">
          <Node pos="l" depth="2" NCoef="0" IVar="-1" Cut="0.0000000000000000e+00" cType="1" res="-4.8117227852344513e-02" rms="2.8907984495162964e-01" purity="1.3950878381729126e-01" nType="-99"/>
          <Node pos="r" depth="2" NCoef="0" IVar="-1" Cut="0.0000000000000000e+00" cType="1" res="-7.4768373742699623e-03" rms="4.2375424504280090e-01" purity="5.3917574882507324e-01" nType="-99"/>
        </Node>
      </Node>
    </BinaryTree>
    <BinaryTree type="DecisionTree" boostWeight="1.0000000000000000e+00" itree="19">
      <Node pos="s" depth="0" NCoef="0" IVar="0" Cut="4.2579169273376465e+00" cType="1" res="-7.3919778515119106e-05" rms="3.5439467430114746e-01" purity="5.0097751617431641e-01" nType="0">
        <Node pos="l" depth="1" NCoef="0" IVar="0" Cut="1.7915369272232056e+00" cType="1" res="-2.7756782248616219e-02" rms="3.5266610980033875e-01" purity="4.4863432645797729e-01" nType="0">
          <Node pos="l" depth="2" NCoef="0" IVar="-1" Cut="0.0000000000000000e+00" cType="1" res="-3.9246458560228348e-02" rms="3.1930282711982727e-01" purity="2.4654811620712280e-01" nType="-99"/>
          <Node pos="r" depth="2" NCoef="0" IVar="-1" Cut="0.0000000000000000e+00" cType="1" res="2.4082867428660393e-02" rms="3.4750759601593018e-01" purity="6.6396057605743408e-01" nType="-99"/>
        </Node>
        <Node pos="r" depth="1" NCoef="0" IVar="9" Cut="1.0247722864151001e+00" cType="1" res="1.7777904868125916e-01" rms="3.1127572059631348e-01" purity="8.3726429939270020e-01" nType="0">
          <Node pos="l" depth="2" NCoef="0" IVar="-1" Cut="0.0000000000000000e+00" cType="1" res="5.0626508891582489e-02" rms="2.8684854507446289e-01" purity="8.7740695476531982e-01" nType="-99"/>
          <Node pos="r" depth="2" NCoef="0" IVar="-1" Cut="0.0000000000000000e+00" cType="1" res="2.6520889252424240e-02" rms="3.8455906510353088e-01" purity="6.8137800693511963e-01" nType="-99"/>
        </Node>
      </Node>
    </BinaryTree>
    <BinaryTree type="DecisionTree" boostWeight="1.0000000000000000e+00" itree="20">
      <Node pos="s" depth="0" NCoef="0" IVar="6" Cut="1.9857358932495117e-01" cType="1" res="-6.7204964580014348e-04" rms="3.4987512230873108e-01" purity="5.0026494264602661e-01" nType="0">
        <Node pos="l" depth="1" NCoef="0" IVar="0" Cut="3.5884945392608643e+00" cType="1" res="-8.9158087968826294e-02" rms="3.1632089614868164e-01" purity="2.8256234526634216e-01" nType="0">
          <Node pos="l" depth="2" NCoef="0" IVar="-1" Cut="0.0000000000000000e+00" cType="1" res="-3.6698207259178162e-02" rms="2.9875487089157104e-01" purity="2.1372389793395996e-01" nType="-99"/>
          <Node pos="r" depth="2" NCoef="0" IVar="-1" Cut="0.0000000000000000e+00" cType="1" res="3.0738981440663338e-02" rms="3.4103512763977051e-01" purity="7.0816349983215332e-01" nType="-99"/>
        </Node>
        <Node pos="r" depth="1" NCoef="0" IVar="8" Cut="3.1647350788116455e+00" cType="1" res="5.3485333919525146e-02" rms="3.5828602313995361e-01" purity="6.3350856304168701e-01" nType="0">
          <Node pos="l" depth="2" NCoef="0" IVar="-1" Cut="0.0000000000000000e+00" cType="1" res="2.2049538791179657e-02" rms="3.5547089576721191e-01" purity="7.0651644468307495e-01" nType="-99"/>
          <Node pos="r" depth="2" NCoef="0" IVar="-1" Cut="0.0000000000000000e+00" cType="1" res="-3.8689307868480682e-02" rms="3.0991870164871216e-01" purity="1.5390637516975403e-01" nType="-99"/>
        </Node>
      </Node>
    </BinaryTree>
    <BinaryTree type="DecisionTree" boostWeight="1.0000000000000000e+00" itree="21">
      <Node pos="s" depth="0" NCoef="0" IVar="5" Cut="2.4514375686645508e+01" cType="1" res="-1.2234511086717248e-03" rms="3.4611028432846069e-01" purity="4.9884459376335144e-01" nType="0">
        <Node pos="l" depth="1" NCoef="0" IVar="5" Cut="8.3138284683227539e+00" cType="1" res="-4.5142475515604019e-02" rms="3.4501358866691589e-01" purity="3.7141397595405579e-01" nType="0">
          <Node pos="l" depth="2" NCoef="0" IVar="-1" Cut="0.0000000000000000e+00" cType="1" res="-4.3752770870923996e-02" rms="2.7691519260406494e-01" purity="1.4898698031902313e-01" nType="-99"/>
          <Node pos="r" depth="2" NCoef="0" IVar="-1" Cut="0.0000000000000000e+00" cType="1" res="1.1212214827537537e-02" rms="3.7704291939735413e-01" purity="5.7751464843750000e-01" nType="-99"/>
        </Node>
        <Node pos="r" depth="1" NCoef="0" IVar="9" Cut="1.0285727977752686e+00" cType="1" res="9.9575549364089966e-02" rms="3.2702368497848511e-01" purity="7.9131191968917847e-01" nType="0">
          <Node pos="l" depth="2" NCoef="0" IVar="-1" Cut="0.0000000000000000e+00" cType="1" res="3.2878287136554718e-02" rms="3.0601134896278381e-01" purity="8.3133786916732788e-01" nType="-99"/>
          <Node pos="r" depth="2" NCoef="0" IVar="-1" Cut="0.0000000000000000e+00" cType="1" res="-1.2737388722598553e-02" rms="4.1936090588569641e-01" purity="5.0087261199951172e-01" nType="-99"/>
        </Node>
      </Node>
    </BinaryTree>
    <BinaryTree type="DecisionTree" boostWeight="1.0000000000000000e+00" itree="22">
      <Node pos="s" depth="0" NCoef="0" IVar="0" Cut="3.3109295368194580e+00" cType="1" res="7.9347606515511870e-04" rms="3.4293287992477417e-01" purity="5.0154232978820801e-01" nType="0">
        <Node pos="l" depth="1" NCoef="0" IVar="0" Cut="1.6388276815414429e+00" cType="1" res="-4.0465928614139557e-02" rms="3.4010890126228333e-01" purity="4.0985047817230225e-01" nType="0">
          <Node pos="l" depth="2" NCoef="0" IVar="-1" Cut="0.0000000000000000e+00" cType="1" res="-3.9700388908386230e-02" rms="3.0546677112579346e-01" purity="2.1937391161918640e-01" nType="-99"/>
          <Node pos="r" depth="2" NCoef="0" IVar="-1" Cut="0.0000000000000000e+00" cType="1" res="1.4401896856725216e-02" rms="3.4729933738708496e-01" purity="5.9907227754592896e-01" nType="-99"/>
        </Node>
        <Node pos="r" depth="1" NCoef="0" IVar="9" Cut="1.0285720825195312e+00" cType="1" res="1.4255462586879730e-01" rms="3.1350466609001160e-01" purity="8.1658190488815308e-01" nType="0">
          <Node pos="l" depth="2" NCoef="0" IVar="-1" Cut="0.0000000000000000e+00" cType="1" res="4.3209131807088852e-02" rms="2.9655456542968750e-01" purity="8.5478192567825317e-01" nType="-99"/>
          <Node pos="r" depth="2" NCoef="0" IVar="-1" Cut="0.0000000000000000e+00" cType="1" res="9.9924523383378983e-03" rms="4.0088018774986267e-01" purity="5.4276233911514282e-01" nType="-99"/>
        </Node>
      </Node>
    </BinaryTree>
    <BinaryTree type="DecisionTree" boostWeight="1.0000000000000000e+00" itree="23">
      <Node pos="s" depth="0" NCoef="0" IVar="8" Cut="3.1647222042083740e+00" cType="1" res="-1.2367501622065902e-03" rms="3.3950832486152649e-01" purity="4.9917325377464294e-01" nType="0">
        <Node pos="l" depth="1" NCoef="0" IVar="9" Cut="1.0095266103744507e+00" cType="1" res="2.6248363777995110e-02" rms="3.4775295853614807e-01" purity="5.7946759462356567e-01" nType="0">
          <Node pos="l" depth="2" NCoef="0" IVar="-1" Cut="0.0000000000000000e+00" cType="1" res="-4.8426713794469833e-02" rms="2.9490262269973755e-01" purity="1.4455871284008026e-01" nType="-99"/>
          <Node pos="r" depth="2" NCoef="0" IVar="-1" Cut="0.0000000000000000e+00" cType="1" res="1.2986143119633198e-02" rms="3.4657073020935059e-01" purity="6.2395417690277100e-01" nType="-99"/>
        </Node>
        <Node pos="r" depth="1" NCoef="0" IVar="11" Cut="7.6401454210281372e-01" cType="1" res="-1.3691723346710205e-01" rms="2.5525718927383423e-01" purity="1.0279940813779831e-01" nType="0">
          <Node pos="l" depth="2" NCoef="0" IVar="-1" Cut="0.0000000000000000e+00" cType="1" res="-4.8743400722742081e-02" rms="1.9099961221218109e-01" purity="5.0424098968505859e-02" nType="-99"/>
          <Node pos="r" depth="2" NCoef="0" IVar="-1" Cut="0.0000000000000000e+00" cType="1" res="-3.3743098378181458e-02" rms="3.7226578593254089e-01" purity="2.3732110857963562e-01" nType="-99"/>
        </Node>
      </Node>
    </BinaryTree>
    <BinaryTree type="DecisionTree" boostWeight="1.0000000000000000e+00" itree="24">
      <Node pos="s" depth="0" NCoef="0" IVar="0" Cut="3.6658630371093750e+00" cType="1" res="-1.4481650432571769e-03" rms="3.3716067671775818e-01" purity="4.9830397963523865e-01" nType="0">
        <Node pos="l" depth="1" NCoef="0" IVar="0" Cut="1.7571375370025635e+00" cType="1" res="-3.1318515539169312e-02" rms="3.3640584349632263e-01" purity="4.2381224036216736e-01" nType="0">
          <Node pos="l" depth="2" NCoef="0" IVar="-1" Cut="0.0000000000000000e+00" cType="1" res="-3.3615238964557648e-02" rms="3.0914372205734253e-01" purity="2.3840467631816864e-01" nType="-99"/>
          <Node pos="r" depth="2" NCoef="0" IVar="-1" Cut="0.0000000000000000e+00" cType="1" res="1.6296613961458206e-02" rms="3.4320560097694397e-01" purity="6.3273417949676514e-01" nType="-99"/>
        </Node>
        <Node pos="r" depth="1" NCoef="0" IVar="9" Cut="1.0266666412353516e+00" cType="1" res="1.3183571398258209e-01" rms="3.0692052841186523e-01" purity="8.3069217205047607e-01" nType="0">
          <Node pos="l" depth="2" NCoef="0" IVar="-1" Cut="0.0000000000000000e+00" cType="1" res="4.1733942925930023e-02" rms="2.8855696320533752e-01" purity="8.6930453777313232e-01" nType="-99"/>
          <Node pos="r" depth="2" NCoef="0" IVar="-1" Cut="0.0000000000000000e+00" cType="1" res="1.6982169821858406e-02" rms="3.8678777217864990e-01" purity="6.1857366561889648e-01" nType="-99"/>
        </Node>
      </Node>
    </BinaryTree>
    <BinaryTree type="DecisionTree" boostWeight="1.0000000000000000e+00" itree="25">
      <Node pos="s" depth="0" NCoef="0" IVar="9" Cut="1.0247628688812256e+00" cType="1" res="4.1828202665783465e-04" rms="3.3338028192520142e-01" purity="4.9985393881797791e-01" nType="0">
        <Node pos="l" depth="1" NCoef="0" IVar="9" Cut="1.0153306722640991e+00" cType="1" res="3.6526497453451157e-02" rms="3.2910561561584473e-01" purity="5.8156573772430420e-01" nType="0">
          <Node pos="l" depth="2" NCoef="0" IVar="-1" Cut="0.0000000000000000e+00" cType="1" res="-2.8977468609809875e-02" rms="3.0624234676361084e-01" purity="2.6359620690345764e-01" nType="-99"/>
          <Node pos="r" depth="2" NCoef="0" IVar="-1" Cut="0.0000000000000000e+00" cType="1" res="2.7685781940817833e-02" rms="3.2178777456283569e-01" purity="7.2615617513656616e-01" nType="-99"/>
        </Node>
        <Node pos="r" depth="1" NCoef="0" IVar="5" Cut="2.2478240966796875e+01" cType="1" res="-9.5235213637351990e-02" rms="3.2563912868499756e-01" purity="2.8339305520057678e-01" nType="0">
          <Node pos="l" depth="2" NCoef="0" IVar="-1" Cut="0.0000000000000000e+00" cType="1" res="-3.8480307906866074e-02" rms="2.9481458663940430e-01" purity="1.7839315533638000e-01" nType="-99"/>
          <Node pos="r" depth="2" NCoef="0" IVar="-1" Cut="0.0000000000000000e+00" cType="1" res="-2.7981642633676529e-03" rms="3.9311686158180237e-01" purity="6.0112816095352173e-01" nType="-99"/>
        </Node>
      </Node>
    </BinaryTree>
    <BinaryTree type="DecisionTree" boostWeight="1.0000000000000000e+00" itree="26">
      <Node pos="s" depth="0" NCoef="0" IVar="8" Cut="2.5223753452301025e+00" cType="1" res="-6.2578689539805055e-04" rms="3.3017307519912720e-01" purity="4.9865800142288208e-01" nType="0">
        <Node pos="l" depth="1" NCoef="0" IVar="9" Cut="1.0304766893386841e+00" cType="1" res="2.9993692412972450e-02" rms="3.3824378252029419e-01" purity="6.0454028844833374e-01" nType="0">
          <Node pos="l" depth="2" NCoef="0" IVar="-1" Cut="0.0000000000000000e+00" cType="1" res="1.5249200165271759e-02" rms="3.3190932869911194e-01" purity="6.5685790777206421e-01" nType="-99"/>
          <Node pos="r" depth="2" NCoef="0" IVar="-1" Cut="0.0000000000000000e+00" cType="1" res="-3.2799120992422104e-02" rms="3.4388920664787292e-01" purity="2.5365668535232544e-01" nType="-99"/>
        </Node>
        <Node pos="r" depth="1" NCoef="0" IVar="0" Cut="3.6759755611419678e+00" cType="1" res="-9.5038734376430511e-02" rms="2.8385853767395020e-01" purity="1.7217759788036346e-01" nType="0">
          <Node pos="l" depth="2" NCoef="0" IVar="-1" Cut="0.0000000000000000e+00" cType="1" res="-3.9672195911407471e-02" rms="2.5542181730270386e-01" purity="1.1694735288619995e-01" nType="-99"/>
          <Node pos="r" depth="2" NCoef="0" IVar="-1" Cut="0.0000000000000000e+00" cType="1" res="2.5370495393872261e-02" rms="3.9208772778511047e-01" purity="6.0385912656784058e-01" nType="-99"/>
        </Node>
      </Node>
    </BinaryTree>
    <BinaryTree type="DecisionTree" boostWeight="1.0000000000000000e+00" itree="27">
      <Node pos="s" depth="0" NCoef="0" IVar="6" Cut="2.9285901784896851e-01" cType="1" res="1.1031228495994583e-04" rms="3.3001515269279480e-01" purity="5.0156837701797485e-01" nType="0">
        <Node pos="l" depth="1" NCoef="0" IVar="3" Cut="7.7718706130981445e+00" cType="1" res="-5.7243321090936661e-02" rms="3.0643606185913086e-01" purity="3.2047918438911438e-01" nType="0">
          <Node pos="l" depth="2" NCoef="0" IVar="-1" Cut="0.0000000000000000e+00" cType="1" res="-2.6755470782518387e-02" rms="2.9390525817871094e-01" purity="2.4211943149566650e-01" nType="-99"/>
          <Node pos="r" depth="2" NCoef="0" IVar="-1" Cut="0.0000000000000000e+00" cType="1" res="2.0767457783222198e-02" rms="3.3847424387931824e-01" purity="7.5221115350723267e-01" nType="-99"/>
        </Node>
        <Node pos="r" depth="1" NCoef="0" IVar="8" Cut="3.1647350788116455e+00" cType="1" res="4.9461971968412399e-02" rms="3.4140461683273315e-01" purity="6.5739208459854126e-01" nType="0">
          <Node pos="l" depth="2" NCoef="0" IVar="-1" Cut="0.0000000000000000e+00" cType="1" res="2.0218525081872940e-02" rms="3.4103086590766907e-01" purity="7.2774791717529297e-01" nType="-99"/>
          <Node pos="r" depth="2" NCoef="0" IVar="-1" Cut="0.0000000000000000e+00" cType="1" res="-3.0142012983560562e-02" rms="3.0307555198669434e-01" purity="1.6198898851871490e-01" nType="-99"/>
        </Node>
      </Node>
    </BinaryTree>
    <BinaryTree type="DecisionTree" boostWeight="1.0000000000000000e+00" itree="28">
      <Node pos="s" depth="0" NCoef="0" IVar="9" Cut="1.0247623920440674e+00" cType="1" res="-7.1587105048820376e-04" rms="3.2762598991394043e-01" purity="4.9889555573463440e-01" nType="0">
        <Node pos="l" depth="1" NCoef="0" IVar="9" Cut="1.0129716396331787e+00" cType="1" res="3.0284225940704346e-02" rms="3.2431176304817200e-01" purity="5.8146154880523682e-01" nType="0">
          <Node pos="l" depth="2" NCoef="0" IVar="-1" Cut="0.0000000000000000e+00" cType="1" res="-3.6678634583950043e-02" rms="2.8277355432510376e-01" purity="1.7510762810707092e-01" nType="-99"/>
          <Node pos="r" depth="2" NCoef="0" IVar="-1" Cut="0.0000000000000000e+00" cType="1" res="2.1875565871596336e-02" rms="3.2359963655471802e-01" purity="7.0204263925552368e-01" nType="-99"/>
        </Node>
        <Node pos="r" depth="1" NCoef="0" IVar="0" Cut="3.8726255893707275e+00" cType="1" res="-8.2278870046138763e-02" rms="3.2224628329277039e-01" purity="2.8165999054908752e-01" nType="0">
          <Node pos="l" depth="2" NCoef="0" IVar="-1" Cut="0.0000000000000000e+00" cType="1" res="-3.2586008310317993e-02" rms="3.0787932872772217e-01" purity="2.2655467689037323e-01" nType="-99"/>
          <Node pos="r" depth="2" NCoef="0" IVar="-1" Cut="0.0000000000000000e+00" cType="1" res="1.9691208377480507e-02" rms="3.7367340922355652e-01" purity="6.7354625463485718e-01" nType="-99"/>
        </Node>
      </Node>
    </BinaryTree>
    <BinaryTree type="DecisionTree" boostWeight="1.0000000000000000e+00" itree="29">
      <Node pos="s" depth="0" NCoef="0" IVar="10" Cut="7.6629513502120972e-01" cType="1" res="-5.8513501426205039e-04" rms="3.2511582970619202e-01" purity="4.9891889095306396e-01" nType="0">
        <Node pos="l" depth="1" NCoef="0" IVar="5" Cut="8.8944559097290039e+00" cType="1" res="-8.1810601055622101e-02" rms="2.0699721574783325e-01" purity="6.6999033093452454e-02" nType="0">
          <Node pos="l" depth="2" NCoef="0" IVar="-1" Cut="0.0000000000000000e+00" cType="1" res="-4.7505591064691544e-02" rms="1.5543894469738007e-01" purity="2.9287843033671379e-02" nType="-99"/>
          <Node pos="r" depth="2" NCoef="0" IVar="-1" Cut="0.0000000000000000e+00" cType="1" res="-6.1844950541853905e-03" rms="3.0931919813156128e-01" purity="1.8462194502353668e-01" nType="-99"/>
        </Node>
        <Node pos="r" depth="1" NCoef="0" IVar="9" Cut="1.0304762125015259e+00" cType="1" res="2.7933590114116669e-02" rms="3.5304161906242371e-01" purity="6.5056842565536499e-01" nType="0">
          <Node pos="l" depth="2" NCoef="0" IVar="-1" Cut="0.0000000000000000e+00" cType="1" res="1.3644956052303314e-02" rms="3.4532862901687622e-01" purity="6.9967615604400635e-01" nType="-99"/>
          <Node pos="r" depth="2" NCoef="0" IVar="-1" Cut="0.0000000000000000e+00" cType="1" res="-2.9236715286970139e-02" rms="3.7419876456260681e-01" purity="2.9367229342460632e-01" nType="-99"/>
        </Node>
      </Node>
    </BinaryTree>
    <BinaryTree type="DecisionTree" boostWeight="1.0000000000000000e+00" itree="30">
      <Node pos="s" depth="0" NCoef="0" IVar="6" Cut="1.0428639501333237e-01" cType="1" res="3.7878304283367470e-05" rms="3.2430899143218994e-01" purity="5.0200527906417847e-01" nType="0">
        <Node pos="l" depth="1" NCoef="0" IVar="0" Cut="3.3109295368194580e+00" cType="1" res="-7.9896301031112671e-02" rms="2.8244629502296448e-01" purity="2.3902778327465057e-01" nType="0">
          <Node pos="l" depth="2" NCoef="0" IVar="-1" Cut="0.0000000000000000e+00" cType="1" res="-3.6640860140323639e-02" rms="2.6680263876914978e-01" purity="1.6799607872962952e-01" nType="-99"/>
          <Node pos="r" depth="2" NCoef="0" IVar="-1" Cut="0.0000000000000000e+00" cType="1" res="1.5350840054452419e-02" rms="3.2939144968986511e-01" purity="6.4693439006805420e-01" nType="-99"/>
        </Node>
        <Node pos="r" depth="1" NCoef="0" IVar="11" Cut="2.8866010904312134e-01" cType="1" res="2.9235012829303741e-02" rms="3.3356839418411255e-01" purity="5.9806168079376221e-01" nType="0">
          <Node pos="l" depth="2" NCoef="0" IVar="-1" Cut="0.0000000000000000e+00" cType="1" res="-3.1687408685684204e-02" rms="2.3730514943599701e-01" purity="8.9170314371585846e-02" nType="-99"/>
          <Node pos="r" depth="2" NCoef="0" IVar="-1" Cut="0.0000000000000000e+00" cType="1" res="1.5363846905529499e-02" rms="3.4747329354286194e-01" purity="7.1609187126159668e-01" nType="-99"/>
        </Node>
      </Node>
    </BinaryTree>
    <BinaryTree type="DecisionTree" boostWeight="1.0000000000000000e+00" itree="31">
      <Node pos="s" depth="0" NCoef="0" IVar="0" Cut="3.4869170188903809e+00" cType="1" res="-6.5468816319480538e-04" rms="3.2253503799438477e-01" purity="5.0039446353912354e-01" nType="0">
        <Node pos="l" depth="1" NCoef="0" IVar="0" Cut="1.5722725391387939e+00" cType="1" res="-2.5190064683556557e-02" rms="3.2151302695274353e-01" purity="4.1796410083770752e-01" nType="0">
          <Node pos="l" depth="2" NCoef="0" IVar="-1" Cut="0.0000000000000000e+00" cType="1" res="-3.4752573817968369e-02" rms="2.8832852840423584e-01" purity="2.0670342445373535e-01" nType="-99"/>
          <Node pos="r" depth="2" NCoef="0" IVar="-1" Cut="0.0000000000000000e+00" cType="1" res="1.1296512559056282e-02" rms="3.3299675583839417e-01" purity="5.8796107769012451e-01" nType="-99"/>
        </Node>
        <Node pos="r" depth="1" NCoef="0" IVar="6" Cut="1.0429143905639648e-01" cType="1" res="9.4944268465042114e-02" rms="3.0839714407920837e-01" purity="8.2157379388809204e-01" nType="0">
          <Node pos="l" depth="2" NCoef="0" IVar="-1" Cut="0.0000000000000000e+00" cType="1" res="1.1944750323891640e-02" rms="3.3994385600090027e-01" purity="6.5933012962341309e-01" nType="-99"/>
          <Node pos="r" depth="2" NCoef="0" IVar="-1" Cut="0.0000000000000000e+00" cType="1" res="3.3843901008367538e-02" rms="3.0007141828536987e-01" purity="8.5581165552139282e-01" nType="-99"/>
        </Node>
      </Node>
    </BinaryTree>
    <BinaryTree type="DecisionTree" boostWeight="1.0000000000000000e+00" itree="32">
      <Node pos="s" depth="0" NCoef="0" IVar="9" Cut="1.0133348703384399e+00" cType="1" res="-1.4170979848131537e-03" rms="3.2006815075874329e-01" purity="4.9729356169700623e-01" nType="0">
        <Node pos="l" depth="1" NCoef="0" IVar="9" Cut="1.0082556009292603e+00" cType="1" res="-9.6935719251632690e-02" rms="2.8357741236686707e-01" purity="1.8559616804122925e-01" nType="0">
          <Node pos="l" depth="2" NCoef="0" IVar="-1" Cut="0.0000000000000000e+00" cType="1" res="-4.7439549118280411e-02" rms="2.4482883512973785e-01" purity="9.2718400061130524e-02" nType="-99"/>
          <Node pos="r" depth="2" NCoef="0" IVar="-1" Cut="0.0000000000000000e+00" cType="1" res="-1.8741050735116005e-02" rms="3.1722685694694519e-01" purity="2.8988179564476013e-01" nType="-99"/>
        </Node>
        <Node pos="r" depth="1" NCoef="0" IVar="9" Cut="1.0234928131103516e+00" cType="1" res="1.8631955608725548e-02" rms="3.2365119457244873e-01" purity="5.6271785497665405e-01" nType="0">
          <Node pos="l" depth="2" NCoef="0" IVar="-1" Cut="0.0000000000000000e+00" cType="1" res="2.1387889981269836e-02" rms="3.1679919362068176e-01" purity="7.1517699956893921e-01" nType="-99"/>
          <Node pos="r" depth="2" NCoef="0" IVar="-1" Cut="0.0000000000000000e+00" cType="1" res="-1.9278459250926971e-02" rms="3.1886976957321167e-01" purity="3.1885588169097900e-01" nType="-99"/>
        </Node>
      </Node>
    </BinaryTree>
    <BinaryTree type="DecisionTree" boostWeight="1.0000000000000000e+00" itree="33">
      <Node pos="s" depth="0" NCoef="0" IVar="8" Cut="3.1647284030914307e+00" cType="1" res="-1.7507103621028364e-04" rms="3.1874790787696838e-01" purity="5.0018590688705444e-01" nType="0">
        <Node pos="l" depth="1" NCoef="0" IVar="5" Cut="2.9698860168457031e+01" cType="1" res="1.8687564879655838e-02" rms="3.2841265201568604e-01" purity="5.7985854148864746e-01" nType="0">
          <Node pos="l" depth="2" NCoef="0" IVar="-1" Cut="0.0000000000000000e+00" cType="1" res="-3.0253019649535418e-03" rms="3.3974415063858032e-01" purity="4.7397086024284363e-01" nType="-99"/>
          <Node pos="r" depth="2" NCoef="0" IVar="-1" Cut="0.0000000000000000e+00" cType="1" res="3.4121934324502945e-02" rms="2.7551457285881042e-01" purity="8.9372450113296509e-01" nType="-99"/>
        </Node>
        <Node pos="r" depth="1" NCoef="0" IVar="6" Cut="2.9285040497779846e-01" cType="1" res="-9.3633525073528290e-02" rms="2.4517971277236938e-01" purity="1.0543300956487656e-01" nType="0">
          <Node pos="l" depth="2" NCoef="0" IVar="-1" Cut="0.0000000000000000e+00" cType="1" res="-4.3907232582569122e-02" rms="2.0331068336963654e-01" purity="6.4992792904376984e-02" nType="-99"/>
          <Node pos="r" depth="2" NCoef="0" IVar="-1" Cut="0.0000000000000000e+00" cType="1" res="-2.5840457528829575e-02" rms="2.9969456791877747e-01" purity="1.6989146173000336e-01" nType="-99"/>
        </Node>
      </Node>
    </BinaryTree>
    <BinaryTree type="DecisionTree" boostWeight="1.0000000000000000e+00" itree="34">
      <Node pos="s" depth="0" NCoef="0" IVar="6" Cut="1.0428744554519653e-01" cType="1" res="2.1372267510741949e-03" rms="3.1631666421890259e-01" purity="5.0291848182678223e-01" nType="0">
        <Node pos="l" depth="1" NCoef="0" IVar="5" Cut="2.1058921813964844e+01" cType="1" res="-6.4493402838706970e-02" rms="2.7325716614723206e-01" purity="2.3690284788608551e-01" nType="0">
          <Node pos="l" depth="2" NCoef="0" IVar="-1" Cut="0.0000000000000000e+00" cType="1" res="-3.5443715751171112e-02" rms="2.4796140193939209e-01" purity="1.3237448036670685e-01" nType="-99"/>
          <Node pos="r" depth="2" NCoef="0" IVar="-1" Cut="0.0000000000000000e+00" cType="1" res="1.1686824262142181e-02" rms="3.4111404418945312e-01" purity="6.7640519142150879e-01" nType="-99"/>
        </Node>
        <Node pos="r" depth="1" NCoef="0" IVar="11" Cut="2.4342651665210724e-01" cType="1" res="2.6615446433424950e-02" rms="3.2734143733978271e-01" purity="6.0064512491226196e-01" nType="0">
          <Node pos="l" depth="2" NCoef="0" IVar="-1" Cut="0.0000000000000000e+00" cType="1" res="-3.4255303442478180e-02" rms="2.0516115427017212e-01" purity="6.5655224025249481e-02" nType="-99"/>
          <Node pos="r" depth="2" NCoef="0" IVar="-1" Cut="0.0000000000000000e+00" cType="1" res="1.3567230664193630e-02" rms="3.4242749214172363e-01" purity="7.0218288898468018e-01" nType="-99"/>
        </Node>
      </Node>
    </BinaryTree>
    <BinaryTree type="DecisionTree" boostWeight="1.0000000000000000e+00" itree="35">
      <Node pos="s" depth="0" NCoef="0" IVar="9" Cut="1.0266664028167725e+00" cType="1" res="-2.2615788038820028e-03" rms="3.1696203351020813e-01" purity="4.9744424223899841e-01" nType="0">
        <Node pos="l" depth="1" NCoef="0" IVar="9" Cut="1.0139679908752441e+00" cType="1" res="1.8954969942569733e-02" rms="3.1601670384407043e-01" purity="5.7551419734954834e-01" nType="0">
          <Node pos="l" depth="2" NCoef="0" IVar="-1" Cut="0.0000000000000000e+00" cType="1" res="-2.8861792758107185e-02" rms="2.8653222322463989e-01" purity="2.0632942020893097e-01" nType="-99"/>
          <Node pos="r" depth="2" NCoef="0" IVar="-1" Cut="0.0000000000000000e+00" cType="1" res="1.6670525074005127e-02" rms="3.1829279661178589e-01" purity="6.9449174404144287e-01" nType="-99"/>
        </Node>
        <Node pos="r" depth="1" NCoef="0" IVar="5" Cut="1.9163171768188477e+01" cType="1" res="-7.4117466807365417e-02" rms="3.0952167510986328e-01" purity="2.3303823173046112e-01" nType="0">
          <Node pos="l" depth="2" NCoef="0" IVar="-1" Cut="0.0000000000000000e+00" cType="1" res="-3.5095065832138062e-02" rms="2.6821804046630859e-01" purity="1.2847825884819031e-01" nType="-99"/>
          <Node pos="r" depth="2" NCoef="0" IVar="-1" Cut="0.0000000000000000e+00" cType="1" res="-5.9292102232575417e-03" rms="3.9660596847534180e-01" purity="5.1760584115982056e-01" nType="-99"/>
        </Node>
      </Node>
    </BinaryTree>
    <BinaryTree type="DecisionTree" boostWeight="1.0000000000000000e+00" itree="36">
      <Node pos="s" depth="0" NCoef="0" IVar="8" Cut="3.1647222042083740e+00" cType="1" res="-8.9158240007236600e-04" rms="3.1407698988914490e-01" purity="4.9857959151268005e-01" nType="0">
        <Node pos="l" depth="1" NCoef="0" IVar="10" Cut="7.2976142168045044e-01" cType="1" res="1.5906700864434242e-02" rms="3.2404011487960815e-01" purity="5.7832878828048706e-01" nType="0">
          <Node pos="l" depth="2" NCoef="0" IVar="-1" Cut="0.0000000000000000e+00" cType="1" res="-3.0699355527758598e-02" rms="2.1294838190078735e-01" purity="7.2003811597824097e-02" nType="-99"/>
          <Node pos="r" depth="2" NCoef="0" IVar="-1" Cut="0.0000000000000000e+00" cType="1" res="1.0566933080554008e-02" rms="3.4192451834678650e-01" purity="6.9544595479965210e-01" nType="-99"/>
        </Node>
        <Node pos="r" depth="1" NCoef="0" IVar="11" Cut="7.6275622844696045e-01" cType="1" res="-8.3988599479198456e-02" rms="2.4268013238906860e-01" purity="1.0407975316047668e-01" nType="0">
          <Node pos="l" depth="2" NCoef="0" IVar="-1" Cut="0.0000000000000000e+00" cType="1" res="-4.0737226605415344e-02" rms="1.8317244946956635e-01" purity="5.1251664757728577e-02" nType="-99"/>
          <Node pos="r" depth="2" NCoef="0" IVar="-1" Cut="0.0000000000000000e+00" cType="1" res="-2.4411737918853760e-02" rms="3.5063937306404114e-01" purity="2.3792339861392975e-01" nType="-99"/>
        </Node>
      </Node>
    </BinaryTree>
    <BinaryTree type="DecisionTree" boostWeight="1.0000000000000000e+00" itree="37">
      <Node pos="s" depth="0" NCoef="0" IVar="6" Cut="2.4571475386619568e-01" cType="1" res="2.6204486493952572e-04" rms="3.1286975741386414e-01" purity="4.9912670254707336e-01" nType="0">
        <Node pos="l" depth="1" NCoef="0" IVar="5" Cut="3.4090476989746094e+01" cType="1" res="-4.3413754552602768e-02" rms="2.8721088171005249e-01" purity="2.9864344000816345e-01" nType="0">
          <Node pos="l" depth="2" NCoef="0" IVar="-1" Cut="0.0000000000000000e+00" cType="1" res="-2.2144114598631859e-02" rms="2.8025406599044800e-01" purity="2.2959738969802856e-01" nType="-99"/>
          <Node pos="r" depth="2" NCoef="0" IVar="-1" Cut="0.0000000000000000e+00" cType="1" res="1.7385378479957581e-02" rms="3.1232506036758423e-01" purity="7.6106196641921997e-01" nType="-99"/>
        </Node>
        <Node pos="r" depth="1" NCoef="0" IVar="9" Cut="1.0114355087280273e+00" cType="1" res="3.2546713948249817e-02" rms="3.2682827115058899e-01" purity="6.4732170104980469e-01" nType="0">
          <Node pos="l" depth="2" NCoef="0" IVar="-1" Cut="0.0000000000000000e+00" cType="1" res="-2.7045534923672676e-02" rms="3.2788300514221191e-01" purity="2.2493043541908264e-01" nType="-99"/>
          <Node pos="r" depth="2" NCoef="0" IVar="-1" Cut="0.0000000000000000e+00" cType="1" res="1.5198620967566967e-02" rms="3.2373204827308655e-01" purity="6.9702547788619995e-01" nType="-99"/>
        </Node>
      </Node>
    </BinaryTree>
    <BinaryTree type="DecisionTree" boostWeight="1.0000000000000000e+00" itree="38">
      <Node pos="s" depth="0" NCoef="0" IVar="9" Cut="1.0304757356643677e+00" cType="1" res="-1.4126998139545321e-03" rms="3.1297665834426880e-01" purity="4.9787116050720215e-01" nType="0">
        <Node pos="l" depth="1" NCoef="0" IVar="9" Cut="1.0145121812820435e+00" cType="1" res="1.3496868312358856e-02" rms="3.1401804089546204e-01" purity="5.5497378110885620e-01" nType="0">
          <Node pos="l" depth="2" NCoef="0" IVar="-1" Cut="0.0000000000000000e+00" cType="1" res="-2.3896476253867149e-02" rms="2.8812593221664429e-01" purity="2.2731798887252808e-01" nType="-99"/>
          <Node pos="r" depth="2" NCoef="0" IVar="-1" Cut="0.0000000000000000e+00" cType="1" res="1.2738820165395737e-02" rms="3.1773787736892700e-01" purity="6.5754461288452148e-01" nType="-99"/>
        </Node>
        <Node pos="r" depth="1" NCoef="0" IVar="9" Cut="1.0345575809478760e+00" cType="1" res="-8.5014075040817261e-02" rms="2.9335558414459229e-01" purity="1.7768327891826630e-01" nType="0">
          <Node pos="l" depth="2" NCoef="0" IVar="-1" Cut="0.0000000000000000e+00" cType="1" res="-2.0295154303312302e-02" rms="3.0727234482765198e-01" purity="2.1910797059535980e-01" nType="-99"/>
          <Node pos="r" depth="2" NCoef="0" IVar="-1" Cut="0.0000000000000000e+00" cType="1" res="-3.8599967956542969e-02" rms="2.7966612577438354e-01" purity="1.4389942586421967e-01" nType="-99"/>
        </Node>
      </Node>
    </BinaryTree>
    <BinaryTree type="DecisionTree" boostWeight="1.0000000000000000e+00" itree="39">
      <Node pos="s" depth="0" NCoef="0" IVar="9" Cut="1.0247623920440674e+00" cType="1" res="-3.9848627056926489e-04" rms="3.1435722112655640e-01" purity="5.0046867132186890e-01" nType="0">
        <Node pos="l" depth="1" NCoef="0" IVar="9" Cut="1.0153297185897827e+00" cType="1" res="2.0259240642189980e-02" rms="3.1149113178253174e-01" purity="5.8477544784545898e-01" nType="0">
          <Node pos="l" depth="2" NCoef="0" IVar="-1" Cut="0.0000000000000000e+00" cType="1" res="-1.7318405210971832e-02" rms="2.9433986544609070e-01" purity="2.7120280265808105e-01" nType="-99"/>
          <Node pos="r" depth="2" NCoef="0" IVar="-1" Cut="0.0000000000000000e+00" cType="1" res="1.7172414809465408e-02" rms="3.1421309709548950e-01" purity="7.2555702924728394e-01" nType="-99"/>
        </Node>
        <Node pos="r" depth="1" NCoef="0" IVar="0" Cut="3.0449237823486328e+00" cType="1" res="-5.3968958556652069e-02" rms="3.1542927026748657e-01" purity="2.8184083104133606e-01" nType="0">
          <Node pos="l" depth="2" NCoef="0" IVar="-1" Cut="0.0000000000000000e+00" cType="1" res="-2.9902240261435509e-02" rms="2.9359260201454163e-01" purity="1.9518956542015076e-01" nType="-99"/>
          <Node pos="r" depth="2" NCoef="0" IVar="-1" Cut="0.0000000000000000e+00" cType="1" res="1.5836786478757858e-02" rms="3.7049522995948792e-01" purity="6.2697058916091919e-01" nType="-99"/>
        </Node>
      </Node>
    </BinaryTree>
    <BinaryTree type="DecisionTree" boostWeight="1.0000000000000000e+00" itree="40">
      <Node pos="s" depth="0" NCoef="0" IVar="8" Cut="3.1647374629974365e+00" cType="1" res="-1.2163707287982106e-03" rms="3.1185090541839600e-01" purity="4.9841970205307007e-01" nType="0">
        <Node pos="l" depth="1" NCoef="0" IVar="5" Cut="3.4013816833496094e+01" cType="1" res="1.3836792670190334e-02" rms="3.2288181781768799e-01" purity="5.7985895872116089e-01" nType="0">
          <Node pos="l" depth="2" NCoef="0" IVar="-1" Cut="0.0000000000000000e+00" cType="1" res="-1.3867676025256515e-03" rms="3.3334809541702271e-01" purity="4.9402865767478943e-01" nType="-99"/>
          <Node pos="r" depth="2" NCoef="0" IVar="-1" Cut="0.0000000000000000e+00" cType="1" res="3.0172545462846756e-02" rms="2.7021330595016479e-01" purity="8.9890944957733154e-01" nType="-99"/>
        </Node>
        <Node pos="r" depth="1" NCoef="0" IVar="10" Cut="9.5298820734024048e-01" cType="1" res="-7.4644558131694794e-02" rms="2.3790822923183441e-01" purity="1.0116505622863770e-01" nType="0">
          <Node pos="l" depth="2" NCoef="0" IVar="-1" Cut="0.0000000000000000e+00" cType="1" res="-3.9625093340873718e-02" rms="1.6876451671123505e-01" purity="4.2677830904722214e-02" nType="-99"/>
          <Node pos="r" depth="2" NCoef="0" IVar="-1" Cut="0.0000000000000000e+00" cType="1" res="-2.2758143022656441e-02" rms="3.6548793315887451e-01" purity="2.6198849081993103e-01" nType="-99"/>
        </Node>
      </Node>
    </BinaryTree>
    <BinaryTree type="DecisionTree" boostWeight="1.0000000000000000e+00" itree="41">
      <Node pos="s" depth="0" NCoef="0" IVar="11" Cut="5.7257652282714844e-01" cType="1" res="8.9058780577033758e-04" rms="3.1032383441925049e-01" purity="5.0076657533645630e-01" nType="0">
        <Node pos="l" depth="1" NCoef="0" IVar="6" Cut="6.6999334096908569e-01" cType="1" res="-3.7094708532094955e-02" rms="2.6895368099212646e-01" purity="1.9691435992717743e-01" nType="0">
          <Node pos="l" depth="2" NCoef="0" IVar="-1" Cut="0.0000000000000000e+00" cType="1" res="-2.2309338673949242e-02" rms="2.4573272466659546e-01" purity="1.4951418340206146e-01" nType="-99"/>
          <Node pos="r" depth="2" NCoef="0" IVar="-1" Cut="0.0000000000000000e+00" cType="1" res="6.9687785580754280e-03" rms="3.5815379023551941e-01" purity="4.3582341074943542e-01" nType="-99"/>
        </Node>
        <Node pos="r" depth="1" NCoef="0" IVar="6" Cut="5.7143449783325195e-02" cType="1" res="2.8835834935307503e-02" rms="3.3479693531990051e-01" purity="7.2430640459060669e-01" nType="0">
          <Node pos="l" depth="2" NCoef="0" IVar="-1" Cut="0.0000000000000000e+00" cType="1" res="-1.5111589804291725e-02" rms="3.4810400009155273e-01" purity="4.3980407714843750e-01" nType="-99"/>
          <Node pos="r" depth="2" NCoef="0" IVar="-1" Cut="0.0000000000000000e+00" cType="1" res="1.3083628378808498e-02" rms="3.3120939135551453e-01" purity="7.6504832506179810e-01" nType="-99"/>
        </Node>
      </Node>
    </BinaryTree>
    <BinaryTree type="DecisionTree" boostWeight="1.0000000000000000e+00" itree="42">
      <Node pos="s" depth="0" NCoef="0" IVar="6" Cut="3.8714283704757690e-01" cType="1" res="-3.0444617732428014e-04" rms="3.0972179770469666e-01" purity="4.9872332811355591e-01" nType="0">
        <Node pos="l" depth="1" NCoef="0" IVar="3" Cut="7.4946780204772949e+00" cType="1" res="-2.7896059677004814e-02" rms="2.9254075884819031e-01" purity="3.5014629364013672e-01" nType="0">
          <Node pos="l" depth="2" NCoef="0" IVar="-1" Cut="0.0000000000000000e+00" cType="1" res="-1.7701156437397003e-02" rms="2.8432786464691162e-01" purity="2.6262193918228149e-01" nType="-99"/>
          <Node pos="r" depth="2" NCoef="0" IVar="-1" Cut="0.0000000000000000e+00" cType="1" res="1.7805082723498344e-02" rms="3.1597119569778442e-01" purity="7.6360148191452026e-01" nType="-99"/>
        </Node>
        <Node pos="r" depth="1" NCoef="0" IVar="9" Cut="1.0304770469665527e+00" cType="1" res="3.1965777277946472e-02" rms="3.2572674751281738e-01" purity="6.7249399423599243e-01" nType="0">
          <Node pos="l" depth="2" NCoef="0" IVar="-1" Cut="0.0000000000000000e+00" cType="1" res="1.4757430180907249e-02" rms="3.1962871551513672e-01" purity="7.1848869323730469e-01" nType="-99"/>
          <Node pos="r" depth="2" NCoef="0" IVar="-1" Cut="0.0000000000000000e+00" cType="1" res="-1.6068898141384125e-02" rms="3.5835421085357666e-01" purity="3.1164589524269104e-01" nType="-99"/>
        </Node>
      </Node>
    </BinaryTree>
    <BinaryTree type="DecisionTree" boostWeight="1.0000000000000000e+00" itree="43">
      <Node pos="s" depth="0" NCoef="0" IVar="0" Cut="4.1243524551391602e+00" cType="1" res="-2.8564326930791140e-04" rms="3.0954197049140930e-01" purity="5.0080245733261108e-01" nType="0">
        <Node pos="l" depth="1" NCoef="0" IVar="0" Cut="2.0697939395904541e+00" cType="1" res="-1.2900037690997124e-02" rms="3.0998128652572632e-01" purity="4.4425982236862183e-01" nType="0">
          <Node pos="l" depth="2" NCoef="0" IVar="-1" Cut="0.0000000000000000e+00" cType="1" res="-2.1384079009294510e-02" rms="2.9784741997718811e-01" purity="2.9064139723777771e-01" nType="-99"/>
          <Node pos="r" depth="2" NCoef="0" IVar="-1" Cut="0.0000000000000000e+00" cType="1" res="2.0830912515521049e-02" rms="3.1557327508926392e-01" purity="7.0154160261154175e-01" nType="-99"/>
        </Node>
        <Node pos="r" depth="1" NCoef="0" IVar="7" Cut="2.4134212493896484e+01" cType="1" res="7.4419319629669189e-02" rms="2.9611003398895264e-01" purity="8.3565950393676758e-01" nType="0">
          <Node pos="l" depth="2" NCoef="0" IVar="-1" Cut="0.0000000000000000e+00" cType="1" res="1.8332503736019135e-02" rms="3.1191614270210266e-01" purity="8.0712455511093140e-01" nType="-99"/>
          <Node pos="r" depth="2" NCoef="0" IVar="-1" Cut="0.0000000000000000e+00" cType="1" res="3.0880345031619072e-02" rms="2.8857204318046570e-01" purity="8.4773540496826172e-01" nType="-99"/>
        </Node>
      </Node>
    </BinaryTree>
    <BinaryTree type="DecisionTree" boostWeight="1.0000000000000000e+00" itree="44">
      <Node pos="s" depth="0" NCoef="0" IVar="8" Cut="3.1647186279296875e+00" cType="1" res="1.9890712574124336e-03" rms="3.0576708912849426e-01" purity="5.0123214721679688e-01" nType="0">
        <Node pos="l" depth="1" NCoef="0" IVar="5" Cut="2.6856023788452148e+01" cType="1" res="1.5532907098531723e-02" rms="3.1618419289588928e-01" purity="5.8259701728820801e-01" nType="0">
          <Node pos="l" depth="2" NCoef="0" IVar="-1" Cut="0.0000000000000000e+00" cType="1" res="-1.8527456559240818e-03" rms="3.2799744606018066e-01" purity="4.5968002080917358e-01" nType="-99"/>
          <Node pos="r" depth="2" NCoef="0" IVar="-1" Cut="0.0000000000000000e+00" cType="1" res="2.6143506169319153e-02" rms="2.7784335613250732e-01" purity="8.8852256536483765e-01" nType="-99"/>
        </Node>
        <Node pos="r" depth="1" NCoef="0" IVar="10" Cut="9.5482265949249268e-01" cType="1" res="-6.4289674162864685e-02" rms="2.3769186437129974e-01" purity="1.0306126624345779e-01" nType="0">
          <Node pos="l" depth="2" NCoef="0" IVar="-1" Cut="0.0000000000000000e+00" cType="1" res="-3.6481555551290512e-02" rms="1.6806833446025848e-01" purity="4.3656967580318451e-02" nType="-99"/>
          <Node pos="r" depth="2" NCoef="0" IVar="-1" Cut="0.0000000000000000e+00" cType="1" res="-2.1010920405387878e-02" rms="3.6604639887809753e-01" purity="2.6690098643302917e-01" nType="-99"/>
        </Node>
      </Node>
    </BinaryTree>
    <BinaryTree type="DecisionTree" boostWeight="1.0000000000000000e+00" itree="45">
      <Node pos="s" depth="0" NCoef="0" IVar="6" Cut="3.8714316487312317e-01" cType="1" res="-3.5541120450943708e-04" rms="3.0880305171012878e-01" purity="5.0035017728805542e-01" nType="0">
        <Node pos="l" depth="1" NCoef="0" IVar="5" Cut="2.6554618835449219e+01" cType="1" res="-2.5365503504872322e-02" rms="2.9128834605216980e-01" purity="3.4978786110877991e-01" nType="0">
          <Node pos="l" depth="2" NCoef="0" IVar="-1" Cut="0.0000000000000000e+00" cType="1" res="-1.6370894387364388e-02" rms="2.8306996822357178e-01" purity="2.4470551311969757e-01" nType="-99"/>
          <Node pos="r" depth="2" NCoef="0" IVar="-1" Cut="0.0000000000000000e+00" cType="1" res="1.2096081860363483e-02" rms="3.1441044807434082e-01" purity="7.6295858621597290e-01" nType="-99"/>
        </Node>
        <Node pos="r" depth="1" NCoef="0" IVar="8" Cut="2.5223917961120605e+00" cType="1" res="2.9204007238149643e-02" rms="3.2583519816398621e-01" purity="6.7829972505569458e-01" nType="0">
          <Node pos="l" depth="2" NCoef="0" IVar="-1" Cut="0.0000000000000000e+00" cType="1" res="1.4972845092415810e-02" rms="3.2465755939483643e-01" purity="7.6214301586151123e-01" nType="-99"/>
          <Node pos="r" depth="2" NCoef="0" IVar="-1" Cut="0.0000000000000000e+00" cType="1" res="-1.0549417696893215e-02" rms="3.2397997379302979e-01" purity="2.9509061574935913e-01" nType="-99"/>
        </Node>
      </Node>
    </BinaryTree>
    <BinaryTree type="DecisionTree" boostWeight="1.0000000000000000e+00" itree="46">
      <Node pos="s" depth="0" NCoef="0" IVar="9" Cut="1.0247626304626465e+00" cType="1" res="1.4603296294808388e-03" rms="3.0623435974121094e-01" purity="5.0292468070983887e-01" nType="0">
        <Node pos="l" depth="1" NCoef="0" IVar="9" Cut="1.0153301954269409e+00" cType="1" res="1.8355153501033783e-02" rms="3.0357745289802551e-01" purity="5.8521699905395508e-01" nType="0">
          <Node pos="l" depth="2" NCoef="0" IVar="-1" Cut="0.0000000000000000e+00" cType="1" res="-1.6600815579295158e-02" rms="2.8875648975372314e-01" purity="2.6742979884147644e-01" nType="-99"/>
          <Node pos="r" depth="2" NCoef="0" IVar="-1" Cut="0.0000000000000000e+00" cType="1" res="1.6647471114993095e-02" rms="3.0608177185058594e-01" purity="7.2859513759613037e-01" nType="-99"/>
        </Node>
        <Node pos="r" depth="1" NCoef="0" IVar="9" Cut="1.0334694385528564e+00" cType="1" res="-4.3191406875848770e-02" rms="3.0872872471809387e-01" purity="2.8543218970298767e-01" nType="0">
          <Node pos="l" depth="2" NCoef="0" IVar="-1" Cut="0.0000000000000000e+00" cType="1" res="-8.7480042129755020e-03" rms="3.2062643766403198e-01" purity="3.5709023475646973e-01" nType="-99"/>
          <Node pos="r" depth="2" NCoef="0" IVar="-1" Cut="0.0000000000000000e+00" cType="1" res="-3.0112175270915031e-02" rms="2.8366217017173767e-01" purity="1.5925048291683197e-01" nType="-99"/>
        </Node>
      </Node>
    </BinaryTree>
    <BinaryTree type="DecisionTree" boostWeight="1.0000000000000000e+00" itree="47">
      <Node pos="s" depth="0" NCoef="0" IVar="0" Cut="4.0670766830444336e+00" cType="1" res="-1.2930481461808085e-03" rms="3.0769550800323486e-01" purity="4.9986833333969116e-01" nType="0">
        <Node pos="l" depth="1" NCoef="0" IVar="0" Cut="1.5817873477935791e+00" cType="1" res="-1.2547053396701813e-02" rms="3.0768898129463196e-01" purity="4.4120907783508301e-01" nType="0">
          <Node pos="l" depth="2" NCoef="0" IVar="-1" Cut="0.0000000000000000e+00" cType="1" res="-2.9624415561556816e-02" rms="2.7944034337997437e-01" purity="2.0769375562667847e-01" nType="-99"/>
          <Node pos="r" depth="2" NCoef="0" IVar="-1" Cut="0.0000000000000000e+00" cType="1" res="1.1308463290333748e-02" rms="3.1956976652145386e-01" purity="6.1245340108871460e-01" nType="-99"/>
        </Node>
        <Node pos="r" depth="1" NCoef="0" IVar="6" Cut="1.5143439173698425e-01" cType="1" res="6.2760584056377411e-02" rms="2.9979252815246582e-01" purity="8.3373504877090454e-01" nType="0">
          <Node pos="l" depth="2" NCoef="0" IVar="-1" Cut="0.0000000000000000e+00" cType="1" res="1.4643644914031029e-02" rms="3.3161804080009460e-01" purity="6.9363242387771606e-01" nType="-99"/>
          <Node pos="r" depth="2" NCoef="0" IVar="-1" Cut="0.0000000000000000e+00" cType="1" res="2.7473084628582001e-02" rms="2.8936207294464111e-01" purity="8.7560218572616577e-01" nType="-99"/>
        </Node>
      </Node>
    </BinaryTree>
    <BinaryTree type="DecisionTree" boostWeight="1.0000000000000000e+00" itree="48">
      <Node pos="s" depth="0" NCoef="0" IVar="9" Cut="1.0095251798629761e+00" cType="1" res="3.2360196928493679e-04" rms="3.0452886223793030e-01" purity="4.9961996078491211e-01" nType="0">
        <Node pos="l" depth="1" NCoef="0" IVar="-1" Cut="0.0000000000000000e+00" cType="1" res="-3.2672058790922165e-02" rms="2.4640581011772156e-01" purity="1.0763654112815857e-01" nType="-99"/>
        <Node pos="r" depth="1" NCoef="0" IVar="9" Cut="1.0225858688354492e+00" cType="1" res="9.1696307063102722e-03" rms="3.0971357226371765e-01" purity="5.4741722345352173e-01" nType="0">
          <Node pos="l" depth="2" NCoef="0" IVar="-1" Cut="0.0000000000000000e+00" cType="1" res="1.3400043360888958e-02" rms="3.0751782655715942e-01" purity="6.7499566078186035e-01" nType="-99"/>
          <Node pos="r" depth="2" NCoef="0" IVar="-1" Cut="0.0000000000000000e+00" cType="1" res="-1.2003838084638119e-02" rms="3.0847004055976868e-01" purity="3.5481426119804382e-01" nType="-99"/>
        </Node>
      </Node>
    </BinaryTree>
    <BinaryTree type="DecisionTree" boostWeight="1.0000000000000000e+00" itree="49">
      <Node pos="s" depth="0" NCoef="0" IVar="8" Cut="2.2791783809661865e+00" cType="1" res="-1.2704994878731668e-04" rms="3.0458220839500427e-01" purity="4.9939975142478943e-01" nType="0">
        <Node pos="l" depth="1" NCoef="0" IVar="9" Cut="1.0095275640487671e+00" cType="1" res="1.6010947525501251e-02" rms="3.1507986783981323e-01" purity="6.1051362752914429e-01" nType="0">
          <Node pos="l" depth="2" NCoef="0" IVar="-1" Cut="0.0000000000000000e+00" cType="1" res="-2.6664542034268379e-02" rms="2.9262512922286987e-01" purity="1.6178004443645477e-01" nType="-99"/>
          <Node pos="r" depth="2" NCoef="0" IVar="-1" Cut="0.0000000000000000e+00" cType="1" res="8.9723495766520500e-03" rms="3.1589844822883606e-01" purity="6.5410476922988892e-01" nType="-99"/>
        </Node>
        <Node pos="r" depth="1" NCoef="0" IVar="11" Cut="5.7296121120452881e-01" cType="1" res="-4.2070753872394562e-02" rms="2.7097463607788086e-01" purity="2.1060773730278015e-01" nType="0">
          <Node pos="l" depth="2" NCoef="0" IVar="-1" Cut="0.0000000000000000e+00" cType="1" res="-3.3923875540494919e-02" rms="1.8830911815166473e-01" purity="6.4404517412185669e-02" nType="-99"/>
          <Node pos="r" depth="2" NCoef="0" IVar="-1" Cut="0.0000000000000000e+00" cType="1" res="-6.1857085675001144e-03" rms="3.6019715666770935e-01" purity="4.3010458350181580e-01" nType="-99"/>
        </Node>
      </Node>
    </BinaryTree>
    <BinaryTree type="DecisionTree" boostWeight="1.0000000000000000e+00" itree="50">
      <Node pos="s" depth="0" NCoef="0" IVar="11" Cut="2.4081988632678986e-01" cType="1" res="1.4362756628543139e-03" rms="3.0271700024604797e-01" purity="5.0065183639526367e-01" nType="0">
        <Node pos="l" depth="1" NCoef="0" IVar="-1" Cut="0.0000000000000000e+00" cType="1" res="-3.4522820264101028e-02" rms="1.6081747412681580e-01" purity="4.0080994367599487e-02" nType="-99"/>
        <Node pos="r" depth="1" NCoef="0" IVar="9" Cut="1.0323814153671265e+00" cType="1" res="1.4470327645540237e-02" rms="3.2876423001289368e-01" purity="6.2154757976531982e-01" nType="0">
          <Node pos="l" depth="2" NCoef="0" IVar="-1" Cut="0.0000000000000000e+00" cType="1" res="8.0796703696250916e-03" rms="3.2671803236007690e-01" purity="6.6330373287200928e-01" nType="-99"/>
          <Node pos="r" depth="2" NCoef="0" IVar="-1" Cut="0.0000000000000000e+00" cType="1" res="-2.1401250734925270e-02" rms="3.3604484796524048e-01" purity="2.4070693552494049e-01" nType="-99"/>
        </Node>
      </Node>
    </BinaryTree>
    <BinaryTree type="DecisionTree" boostWeight="1.0000000000000000e+00" itree="51">
      <Node pos="s" depth="0" NCoef="0" IVar="6" Cut="5.7142883539199829e-02" cType="1" res="-8.4155873628333211e-04" rms="3.0367699265480042e-01" purity="4.9959015846252441e-01" nType="0">
        <Node pos="l" depth="1" NCoef="0" IVar="3" Cut="6.4328327178955078e+00" cType="1" res="-5.0587024539709091e-02" rms="2.5193879008293152e-01" purity="2.0033444464206696e-01" nType="0">
          <Node pos="l" depth="2" NCoef="0" IVar="-1" Cut="0.0000000000000000e+00" cType="1" res="-3.0396524816751480e-02" rms="2.3414643108844757e-01" purity="1.2979799509048462e-01" nType="-99"/>
          <Node pos="r" depth="2" NCoef="0" IVar="-1" Cut="0.0000000000000000e+00" cType="1" res="7.3070353828370571e-03" rms="3.3278995752334595e-01" purity="6.3617634773254395e-01" nType="-99"/>
        </Node>
        <Node pos="r" depth="1" NCoef="0" IVar="9" Cut="1.0323805809020996e+00" cType="1" res="1.0578346438705921e-02" rms="3.1324186921119690e-01" purity="5.6828927993774414e-01" nType="0">
          <Node pos="l" depth="2" NCoef="0" IVar="-1" Cut="0.0000000000000000e+00" cType="1" res="7.1551334112882614e-03" rms="3.1336128711700439e-01" purity="6.1412978172302246e-01" nType="-99"/>
          <Node pos="r" depth="2" NCoef="0" IVar="-1" Cut="0.0000000000000000e+00" cType="1" res="-2.2453967481851578e-02" rms="3.0319789052009583e-01" purity="1.9514365494251251e-01" nType="-99"/>
        </Node>
      </Node>
    </BinaryTree>
    <BinaryTree type="DecisionTree" boostWeight="1.0000000000000000e+00" itree="52">
      <Node pos="s" depth="0" NCoef="0" IVar="8" Cut="2.2309961318969727e+00" cType="1" res="-1.3956227339804173e-03" rms="3.0367612838745117e-01" purity="4.9913939833641052e-01" nType="0">
        <Node pos="l" depth="1" NCoef="0" IVar="0" Cut="3.1451942920684814e+00" cType="1" res="1.4649894088506699e-02" rms="3.1344652175903320e-01" purity="6.1203396320343018e-01" nType="0">
          <Node pos="l" depth="2" NCoef="0" IVar="-1" Cut="0.0000000000000000e+00" cType="1" res="-3.1622659298591316e-04" rms="3.2180911302566528e-01" purity="5.1651483774185181e-01" nType="-99"/>
          <Node pos="r" depth="2" NCoef="0" IVar="-1" Cut="0.0000000000000000e+00" cType="1" res="2.3012531921267509e-02" rms="2.8670632839202881e-01" purity="8.6008352041244507e-01" nType="-99"/>
        </Node>
        <Node pos="r" depth="1" NCoef="0" IVar="0" Cut="4.1259164810180664e+00" cType="1" res="-4.1424456983804703e-02" rms="2.7373832464218140e-01" purity="2.1750083565711975e-01" nType="0">
          <Node pos="l" depth="2" NCoef="0" IVar="-1" Cut="0.0000000000000000e+00" cType="1" res="-2.4386096745729446e-02" rms="2.5956186652183533e-01" purity="1.6568946838378906e-01" nType="-99"/>
          <Node pos="r" depth="2" NCoef="0" IVar="-1" Cut="0.0000000000000000e+00" cType="1" res="2.2717805579304695e-02" rms="3.5630518198013306e-01" purity="6.8164157867431641e-01" nType="-99"/>
        </Node>
      </Node>
    </BinaryTree>
    <BinaryTree type="DecisionTree" boostWeight="1.0000000000000000e+00" itree="53">
      <Node pos="s" depth="0" NCoef="0" IVar="10" Cut="7.1792906522750854e-01" cType="1" res="1.4994593802839518e-03" rms="3.0149054527282715e-01" purity="5.0246459245681763e-01" nType="0">
        <Node pos="l" depth="1" NCoef="0" IVar="-1" Cut="0.0000000000000000e+00" cType="1" res="-2.9664333909749985e-02" rms="1.7272487282752991e-01" purity="4.7924369573593140e-02" nType="-99"/>
        <Node pos="r" depth="1" NCoef="0" IVar="8" Cut="3.1647350788116455e+00" cType="1" res="1.3377308845520020e-02" rms="3.2677596807479858e-01" purity="6.2564271688461304e-01" nType="0">
          <Node pos="l" depth="2" NCoef="0" IVar="-1" Cut="0.0000000000000000e+00" cType="1" res="7.9831266775727272e-03" rms="3.3058169484138489e-01" purity="6.9464844465255737e-01" nType="-99"/>
          <Node pos="r" depth="2" NCoef="0" IVar="-1" Cut="0.0000000000000000e+00" cType="1" res="-1.9038017839193344e-02" rms="2.9216799139976501e-01" purity="1.6577082872390747e-01" nType="-99"/>
        </Node>
      </Node>
    </BinaryTree>
    <BinaryTree type="DecisionTree" boostWeight="1.0000000000000000e+00" itree="54">
      <Node pos="s" depth="0" NCoef="0" IVar="0" Cut="3.6658630371093750e+00" cType="1" res="-1.4049368910491467e-03" rms="3.0390188097953796e-01" purity="5.0033569335937500e-01" nType="0">
        <Node pos="l" depth="1" NCoef="0" IVar="0" Cut="1.8934731483459473e+00" cType="1" res="-1.2964424677193165e-02" rms="3.0337572097778320e-01" purity="4.2484036087989807e-01" nType="0">
          <Node pos="l" depth="2" NCoef="0" IVar="-1" Cut="0.0000000000000000e+00" cType="1" res="-2.0690700039267540e-02" rms="2.8879809379577637e-01" purity="2.6197865605354309e-01" nType="-99"/>
          <Node pos="r" depth="2" NCoef="0" IVar="-1" Cut="0.0000000000000000e+00" cType="1" res="1.4759828336536884e-02" rms="3.1556144356727600e-01" purity="6.5837699174880981e-01" nType="-99"/>
        </Node>
        <Node pos="r" depth="1" NCoef="0" IVar="8" Cut="2.2595033645629883e+00" cType="1" res="4.9864068627357483e-02" rms="3.0091929435729980e-01" purity="8.3517521619796753e-01" nType="0">
          <Node pos="l" depth="2" NCoef="0" IVar="-1" Cut="0.0000000000000000e+00" cType="1" res="2.0105050876736641e-02" rms="2.8596499562263489e-01" purity="8.7444597482681274e-01" nType="-99"/>
          <Node pos="r" depth="2" NCoef="0" IVar="-1" Cut="0.0000000000000000e+00" cType="1" res="2.1572956815361977e-02" rms="3.5754281282424927e-01" purity="6.6539883613586426e-01" nType="-99"/>
        </Node>
      </Node>
    </BinaryTree>
    <BinaryTree type="DecisionTree" boostWeight="1.0000000000000000e+00" itree="55">
      <Node pos="s" depth="0" NCoef="0" IVar="9" Cut="1.0095250606536865e+00" cType="1" res="2.7238277834840119e-04" rms="3.0125781893730164e-01" purity="5.0067681074142456e-01" nType="0">
        <Node pos="l" depth="1" NCoef="0" IVar="-1" Cut="0.0000000000000000e+00" cType="1" res="-2.9365111142396927e-02" rms="2.4440696835517883e-01" purity="1.0599812120199203e-01" nType="-99"/>
        <Node pos="r" depth="1" NCoef="0" IVar="9" Cut="1.0225858688354492e+00" cType="1" res="7.4791088700294495e-03" rms="3.0663365125656128e-01" purity="5.4838156700134277e-01" nType="0">
          <Node pos="l" depth="2" NCoef="0" IVar="-1" Cut="0.0000000000000000e+00" cType="1" res="1.1529289186000824e-02" rms="3.0452758073806763e-01" purity="6.7431515455245972e-01" nType="-99"/>
          <Node pos="r" depth="2" NCoef="0" IVar="-1" Cut="0.0000000000000000e+00" cType="1" res="-1.0324661619961262e-02" rms="3.0674886703491211e-01" purity="3.5687750577926636e-01" nType="-99"/>
        </Node>
      </Node>
    </BinaryTree>
    <BinaryTree type="DecisionTree" boostWeight="1.0000000000000000e+00" itree="56">
      <Node pos="s" depth="0" NCoef="0" IVar="6" Cut="4.8142680525779724e-01" cType="1" res="-7.0000911364331841e-04" rms="3.0146059393882751e-01" purity="5.0010746717453003e-01" nType="0">
        <Node pos="l" depth="1" NCoef="0" IVar="10" Cut="9.5325905084609985e-01" cType="1" res="-1.7253611236810684e-02" rms="2.8818303346633911e-01" purity="3.7801370024681091e-01" nType="0">
          <Node pos="l" depth="2" NCoef="0" IVar="-1" Cut="0.0000000000000000e+00" cType="1" res="-1.6307057812809944e-02" rms="2.5610888004302979e-01" purity="1.8070444464683533e-01" nType="-99"/>
          <Node pos="r" depth="2" NCoef="0" IVar="-1" Cut="0.0000000000000000e+00" cType="1" res="4.1350489482283592e-03" rms="3.3578601479530334e-01" purity="7.2890681028366089e-01" nType="-99"/>
        </Node>
        <Node pos="r" depth="1" NCoef="0" IVar="7" Cut="3.6731231689453125e+01" cType="1" res="2.5256060063838959e-02" rms="3.1945428252220154e-01" purity="6.9155067205429077e-01" nType="0">
          <Node pos="l" depth="2" NCoef="0" IVar="-1" Cut="0.0000000000000000e+00" cType="1" res="1.2458420358598232e-02" rms="3.1830233335494995e-01" purity="7.0551604032516479e-01" nType="-99"/>
          <Node pos="r" depth="2" NCoef="0" IVar="-1" Cut="0.0000000000000000e+00" cType="1" res="-2.0294237881898880e-02" rms="3.1970778107643127e-01" purity="5.6046068668365479e-01" nType="-99"/>
        </Node>
      </Node>
    </BinaryTree>
    <BinaryTree type="DecisionTree" boostWeight="1.0000000000000000e+00" itree="57">
      <Node pos="s" depth="0" NCoef="0" IVar="6" Cut="5.7146131992340088e-02" cType="1" res="-2.7867784956470132e-04" rms="3.0100700259208679e-01" purity="5.0004661083221436e-01" nType="0">
        <Node pos="l" depth="1" NCoef="0" IVar="6" Cut="3.9186373353004456e-02" cType="1" res="-4.1986607015132904e-02" rms="2.5174593925476074e-01" purity="2.0197394490242004e-01" nType="0">
          <Node pos="l" depth="2" NCoef="0" IVar="-1" Cut="0.0000000000000000e+00" cType="1" res="-2.4374159052968025e-02" rms="2.4609750509262085e-01" purity="1.8495574593544006e-01" nType="-99"/>
          <Node pos="r" depth="2" NCoef="0" IVar="-1" Cut="0.0000000000000000e+00" cType="1" res="-9.2605547979474068e-03" rms="2.6704108715057373e-01" purity="2.5409996509552002e-01" nType="-99"/>
        </Node>
        <Node pos="r" depth="1" NCoef="0" IVar="11" Cut="2.4013599753379822e-01" cType="1" res="9.2409513890743256e-03" rms="3.1037473678588867e-01" purity="5.6808024644851685e-01" nType="0">
          <Node pos="l" depth="2" NCoef="0" IVar="-1" Cut="0.0000000000000000e+00" cType="1" res="-2.5838112458586693e-02" rms="1.8457493185997009e-01" purity="5.5596139281988144e-02" nType="-99"/>
          <Node pos="r" depth="2" NCoef="0" IVar="-1" Cut="0.0000000000000000e+00" cType="1" res="6.5996726043522358e-03" rms="3.2960078120231628e-01" purity="6.7355579137802124e-01" nType="-99"/>
        </Node>
      </Node>
    </BinaryTree>
    <BinaryTree type="DecisionTree" boostWeight="1.0000000000000000e+00" itree="58">
      <Node pos="s" depth="0" NCoef="0" IVar="9" Cut="1.0228569507598877e+00" cType="1" res="1.8363342678640038e-04" rms="2.9988172650337219e-01" purity="4.9941080808639526e-01" nType="0">
        <Node pos="l" depth="1" NCoef="0" IVar="9" Cut="1.0163263082504272e+00" cType="1" res="1.4762826263904572e-02" rms="2.9489031434059143e-01" purity="5.8141255378723145e-01" nType="0">
          <Node pos="l" depth="2" NCoef="0" IVar="-1" Cut="0.0000000000000000e+00" cType="1" res="-1.2766938656568527e-02" rms="2.9050317406654358e-01" purity="3.1843590736389160e-01" nType="-99"/>
          <Node pos="r" depth="2" NCoef="0" IVar="-1" Cut="0.0000000000000000e+00" cType="1" res="1.7895741388201714e-02" rms="2.9400891065597534e-01" purity="7.5590133666992188e-01" nType="-99"/>
        </Node>
        <Node pos="r" depth="1" NCoef="0" IVar="7" Cut="2.6844993591308594e+01" cType="1" res="-2.7547335252165794e-02" rms="3.0725005269050598e-01" purity="3.4343594312667847e-01" nType="0">
          <Node pos="l" depth="2" NCoef="0" IVar="-1" Cut="0.0000000000000000e+00" cType="1" res="-5.5383709259331226e-03" rms="3.0879169702529907e-01" purity="3.5094878077507019e-01" nType="-99"/>
          <Node pos="r" depth="2" NCoef="0" IVar="-1" Cut="0.0000000000000000e+00" cType="1" res="-2.5800742208957672e-02" rms="2.9971218109130859e-01" purity="3.2253319025039673e-01" nType="-99"/>
        </Node>
      </Node>
    </BinaryTree>
    <BinaryTree type="DecisionTree" boostWeight="1.0000000000000000e+00" itree="59">
      <Node pos="s" depth="0" NCoef="0" IVar="5" Cut="2.8006336212158203e+01" cType="1" res="-9.9291885271668434e-04" rms="3.0175003409385681e-01" purity="5.0189822912216187e-01" nType="0">
        <Node pos="l" depth="1" NCoef="0" IVar="5" Cut="6.8647618293762207e+00" cType="1" res="-1.2141126208007336e-02" rms="3.0590149760246277e-01" purity="3.9416742324829102e-01" nType="0">
          <Node pos="l" depth="2" NCoef="0" IVar="-1" Cut="0.0000000000000000e+00" cType="1" res="-4.0072068572044373e-02" rms="2.3162508010864258e-01" purity="1.1317115277051926e-01" nType="-99"/>
          <Node pos="r" depth="2" NCoef="0" IVar="-1" Cut="0.0000000000000000e+00" cType="1" res="8.8476352393627167e-03" rms="3.3482953906059265e-01" purity="5.5112326145172119e-01" nType="-99"/>
        </Node>
        <Node pos="r" depth="1" NCoef="0" IVar="8" Cut="2.6816043853759766e+00" cType="1" res="3.0563319101929665e-02" rms="2.8734108805656433e-01" purity="8.0684232711791992e-01" nType="0">
          <Node pos="l" depth="2" NCoef="0" IVar="-1" Cut="0.0000000000000000e+00" cType="1" res="2.1508067846298218e-02" rms="2.7106776833534241e-01" purity="9.0007811784744263e-01" nType="-99"/>
          <Node pos="r" depth="2" NCoef="0" IVar="-1" Cut="0.0000000000000000e+00" cType="1" res="-1.4239675365388393e-02" rms="3.4631922841072083e-01" purity="3.4431946277618408e-01" nType="-99"/>
        </Node>
      </Node>
    </BinaryTree>
    <BinaryTree type="DecisionTree" boostWeight="1.0000000000000000e+00" itree="60">
      <Node pos="s" depth="0" NCoef="0" IVar="0" Cut="3.3061399459838867e+00" cType="1" res="-2.3948939633555710e-04" rms="2.9950565099716187e-01" purity="5.0156670808792114e-01" nType="0">
        <Node pos="l" depth="1" NCoef="0" IVar="0" Cut="1.3988138437271118e+00" cType="1" res="-1.2696734629571438e-02" rms="2.9877108335494995e-01" purity="4.0958976745605469e-01" nType="0">
          <Node pos="l" depth="2" NCoef="0" IVar="-1" Cut="0.0000000000000000e+00" cType="1" res="-3.1658120453357697e-02" rms="2.6015192270278931e-01" purity="1.7298534512519836e-01" nType="-99"/>
          <Node pos="r" depth="2" NCoef="0" IVar="-1" Cut="0.0000000000000000e+00" cType="1" res="6.2511512078344822e-03" rms="3.1310811638832092e-01" purity="5.3236442804336548e-01" nType="-99"/>
        </Node>
        <Node pos="r" depth="1" NCoef="0" IVar="11" Cut="9.5276707410812378e-01" cType="1" res="4.2181629687547684e-02" rms="2.9811444878578186e-01" purity="8.1477934122085571e-01" nType="0">
          <Node pos="l" depth="2" NCoef="0" IVar="-1" Cut="0.0000000000000000e+00" cType="1" res="1.2760360725224018e-02" rms="3.2234078645706177e-01" purity="7.2875469923019409e-01" nType="-99"/>
          <Node pos="r" depth="2" NCoef="0" IVar="-1" Cut="0.0000000000000000e+00" cType="1" res="2.4910295382142067e-02" rms="2.6811957359313965e-01" purity="9.1093248128890991e-01" nType="-99"/>
        </Node>
      </Node>
    </BinaryTree>
    <BinaryTree type="DecisionTree" boostWeight="1.0000000000000000e+00" itree="61">
      <Node pos="s" depth="0" NCoef="0" IVar="0" Cut="3.8708190917968750e+00" cType="1" res="-3.5660408320836723e-04" rms="2.9925414919853210e-01" purity="5.0018692016601562e-01" nType="0">
        <Node pos="l" depth="1" NCoef="0" IVar="0" Cut="1.3889567852020264e+00" cType="1" res="-8.5941571742296219e-03" rms="2.9976665973663330e-01" purity="4.3362265825271606e-01" nType="0">
          <Node pos="l" depth="2" NCoef="0" IVar="-1" Cut="0.0000000000000000e+00" cType="1" res="-2.8297469019889832e-02" rms="2.5565034151077271e-01" purity="1.7065590620040894e-01" nType="-99"/>
          <Node pos="r" depth="2" NCoef="0" IVar="-1" Cut="0.0000000000000000e+00" cType="1" res="5.6385933421552181e-03" rms="3.1515237689018250e-01" purity="5.5339056253433228e-01" nType="-99"/>
        </Node>
        <Node pos="r" depth="1" NCoef="0" IVar="7" Cut="3.2391735076904297e+01" cType="1" res="4.1293147951364517e-02" rms="2.9312613606452942e-01" purity="8.3674120903015137e-01" nType="0">
          <Node pos="l" depth="2" NCoef="0" IVar="-1" Cut="0.0000000000000000e+00" cType="1" res="1.5330191701650620e-02" rms="2.9242998361587524e-01" purity="8.2900059223175049e-01" nType="-99"/>
          <Node pos="r" depth="2" NCoef="0" IVar="-1" Cut="0.0000000000000000e+00" cType="1" res="2.3461863398551941e-02" rms="2.9405355453491211e-01" purity="8.5210168361663818e-01" nType="-99"/>
        </Node>
      </Node>
    </BinaryTree>
    <BinaryTree type="DecisionTree" boostWeight="1.0000000000000000e+00" itree="62">
      <Node pos="s" depth="0" NCoef="0" IVar="9" Cut="1.0247623920440674e+00" cType="1" res="7.7170989243313670e-05" rms="2.9668328166007996e-01" purity="4.9993625283241272e-01" nType="0">
        <Node pos="l" depth="1" NCoef="0" IVar="9" Cut="1.0165088176727295e+00" cType="1" res="1.1401867493987083e-02" rms="2.9423680901527405e-01" purity="5.8534604310989380e-01" nType="0">
          <Node pos="l" depth="2" NCoef="0" IVar="-1" Cut="0.0000000000000000e+00" cType="1" res="-1.0612586513161659e-02" rms="2.8745651245117188e-01" purity="3.2926142215728760e-01" nType="-99"/>
          <Node pos="r" depth="2" NCoef="0" IVar="-1" Cut="0.0000000000000000e+00" cType="1" res="1.3465808704495430e-02" rms="2.9617717862129211e-01" purity="7.3839491605758667e-01" nType="-99"/>
        </Node>
        <Node pos="r" depth="1" NCoef="0" IVar="0" Cut="3.8687095642089844e+00" cType="1" res="-2.9170002788305283e-02" rms="3.0094501376152039e-01" purity="2.7935683727264404e-01" nType="0">
          <Node pos="l" depth="2" NCoef="0" IVar="-1" Cut="0.0000000000000000e+00" cType="1" res="-1.5909060835838318e-02" rms="2.8967684507369995e-01" purity="2.2543299198150635e-01" nType="-99"/>
